{"layers":[{"bias":[-0.038110074775117735,-0.5173057615580111,-0.09361622231197067,-0.3069227286118212],"input_depth":1,"input_height":28,"input_width":28,"kernel_size":3,"layer_type":"convolution_layer","output_depth":4,"output_height":28,"output_width":28,"padding":1,"relu":true,"weights":[-0.7464270643521151,-0.4755433330600486,-0.2568779231876004,-0.0906097444288141,-0.09647932607424038,0.11304433673820354,0.5199547337383105,0.5386991086391346,0.24695238728820834,0.20336911773163466,-1.1309307502779915,-1.0091176253167036,0.19976234608235657,-0.1568366150954166,-0.24445791984259616,0.578601501625361,1.0461573141564107,0.9605263175779081,0.47255358895612903,0.5331584441462048,-0.18944918571439437,0.6061504367599175,0.9757900080680456,0.1525275218008392,-0.11426503815630025,0.07538698034934628,0.05965566369922999,-0.1315539679540183,-0.08353113496263413,-0.05494129162697514,-0.3471452822595172,-0.13799449949825485,0.69866717877355,0.11308749041408318,0.635967397553976,0.7499186817952588]},{"input_depth":4,"input_height":28,"input_width":28,"layer_type":"max_pool_layer","output_depth":4,"output_height":14,"output_width":14},{"bias":[-0.007823550610414114,0.0021237483442104904,-0.7040585977829628,-0.029650915603691423,0.007154556832909046,-0.058262892221055296,-0.07012256895209044,-0.44928910041575043],"input_depth":4,"input_height":14,"input_width":14,"kernel_size":3,"layer_type":"convolution_layer","output_depth":8,"output_height":14,"output_width":14,"padding":1,"relu":true,"weights":[-0.04050847131760553,-0.0994190770076745,-0.0275889896641612,0.18875981713408072,0.2477623430428126,-0.013184732678198492,0.001465054534560053,0.08765510579692391,-0.06036730074532564,0.001439190993679061,-0.03530728238983807,-0.07444811410472375,-0.2397517443974889,0.1547075038904467,0.09746180614303476,0.051189053639057666,0.019217972124506006,0.14005963215376757,-0.169764214982044,0.12067292560436459,0.1108946201233651,-0.1685212184262295,-0.11221353051680821,0.05359993571201554,-0.17286703987094598,0.021836965408805278,0.07151048167981519,-0.047712198605319465,0.11137456696083614,-0.1332832878760965,-0.09184121104554266,0.040468781444960876,-0.22843023236945434,-0.1451464730168852,0.10307877335618087,-0.31572802332857186,-0.27503928096763497,0.11747581437278423,0.3180329497036106,-0.1837567041953046,0.06204714741811724,0.3372296492525018,-0.07300552474492066,0.23856171119137168,-0.05218620599640539,-0.2565688930604085,0.03694015912507742,0.2467192787133924,-0.34660662620396004,0.18522241228471345,0.07394753881396801,0.06932622032941829,0.19081115832332207,-0.2725554591271983,-0.05039132942647436,-0.5187470351985008,-0.49349989940634154,-0.6518923566500995,-0.42330883420015736,0.16232066499347034,-0.6463857255918602,0.5483506348757834,0.08224715723833598,-0.1524358316360379,-0.2327438992517431,0.07360836834958207,-0.3351272205735514,0.045997453923528824,0.30622618038149324,0.2584550912963711,0.09091710052499846,-0.01770842934493108,-0.1064193318266816,0.3972932629148883,0.22498475902539264,0.20422955681099442,-0.10380195424219787,-0.30871935854370397,-0.44036697484184467,-0.0198827346655449,0.051537935284526555,0.24104372712361352,0.48926657106723026,-0.15666061877652518,0.3325227048832138,-0.22041034225554698,-0.34957647596815633,-0.11847661104472454,0.015331034326880247,-0.1988300204102937,-0.6491616904713698,-0.6033675097605622,0.19767182431857067,0.648767060402564,0.6502783555798064,0.33206670371878294,-0.1137525552955327,-0.396394343690771,-0.3335019726704463,0.32844561011063217,0.5251438521992218,0.15910752425080663,0.4848818378761238,0.2716168966827748,-0.36068974957701183,-0.4475810952177793,-0.22329031730662555,0.3490322545596964,0.11580588369177676,-0.013850032311020917,0.09122485042680144,-0.10528189839269071,-0.050096827727766,-0.21444318503911453,0.258508899532734,0.06808476271440354,0.11735182470225758,0.12642231357289205,0.29733056861427287,0.2697072953196063,-0.26596609853961706,-0.24381138810149178,-0.24331491833468807,0.18138091903463083,-0.09777170116212586,-0.11938260337914332,0.12888315519179713,0.451695466530984,0.8434452079825566,0.2187293766889727,0.11589801213539348,0.30281554690803586,-0.41099890758204216,-0.6084061894363166,-1.064554895580142,0.0418971077970178,0.24741176696765857,0.3949648017617034,-0.06870636164463581,-0.33797201193390336,-0.1818059552361179,-0.4010410522450178,-0.36949593797836544,0.05273322659267928,0.002650424294793845,0.055964512522773804,-0.16105258316873602,-0.038646961034016665,0.10107468029257838,0.13556341917081347,0.07585293800792575,0.1408867805402944,-0.12483735370431184,0.6084019544704794,-0.051733203364690734,0.09267620630543198,0.5954090221096002,0.19412125190257043,0.35983188412103045,0.07105000288788821,0.015147235337194679,0.07182474293244005,-0.22164782044391113,-0.7775423058098907,-0.6305892168591608,0.3830359760574075,-0.16505555646731984,0.12672325204159562,0.5681224688050884,0.21505488854828134,0.8023833153446328,-0.1896519458587203,-0.22185643314244155,-0.5251170478874825,-0.05150789669671267,-0.2588299233238397,0.38498605044247075,0.16766123307978426,-0.056686185140548975,-0.10275355431561896,-0.2393616224716214,-0.14732942497833196,0.15801708830822456,-0.07553008707451594,-0.12402077507354883,-0.07014574219515056,-0.13246051973110085,0.000845649619326234,0.08629537849463338,-0.19276724303244078,-0.1439827338538031,-0.21592666041523614,-0.10333351980144366,-0.16750985658158507,-0.05736201231922173,0.14562731078629126,0.13825431175231628,0.11058368930843011,0.896187828588433,-0.3476376699685955,-0.5852167061195007,0.7980583514763686,-0.592658731780272,-0.05155374563458716,-0.0779426800730914,-0.5382344426132765,0.03293762117755917,-0.10927708830558798,-0.3072749750117886,0.15860852248515991,-0.026684081911150195,0.032381617364959675,0.3413444376480948,-0.04910794200824776,-0.04828393273291264,0.3036824027356395,0.0041537317007348,0.18921514208736195,0.07767544152886774,0.17352766961145513,0.058623610806005685,-0.29234256403446107,-0.0999762400926502,-0.028906594978315006,-0.5002233122033691,-0.037353706585309385,-0.18254141072153138,-0.4385153389539311,-0.4568697500086954,-0.25885867562937764,-0.6604325532661757,-0.20846471685961532,-0.3622209241767685,0.23398557401139627,-0.732465582980275,-0.3000751820647428,0.3066760319939697,-0.8557853064079027,0.41025830236115873,0.30118900775720414,-0.20763028226146793,0.6000453422817847,0.3579248063161375,-0.07291129523846897,0.35874686647287646,0.3158952182037006,0.2381481250193123,0.28333763298484593,-0.12687338828124267,0.2598901517514658,0.5044228651999187,-0.33152580145570937,-0.04120903566887469,-0.2940286895264342,-0.19727952900427417,-0.6739926055157703,0.13354562552498236,0.03734182323578675,-0.3503022909373275,0.04400740262276051,0.08723015169571488,-0.6960074859262659,-0.2638613537457626,-0.09492907517771976,-0.03670987790754122,0.42532364059335004,0.19274521164201558,0.08821500844340152,0.34718406347968994,0.3015461191948664,0.6548725993463973,-0.19528349169684686,-0.7269575236721504,0.6383813020734036,0.2598103675101463,-0.7556134932889758,0.32126366187346084,0.6678293092923784,-0.13977505292411235,0.24383056573917056,-0.1845358684413537,0.01729104577316069,0.39388832200762425,0.13960326594725392,-0.1932074206423233,-0.0036518232626447434,0.002988516883232445,-0.1993647627916935]},{"input_depth":8,"input_height":14,"input_width":14,"layer_type":"max_pool_layer","output_depth":8,"output_height":7,"output_width":7},{"bias":[-0.1290551786562377,0.021835487313508387,-0.08575612357239089,-0.27120677390512726,-0.189131718208589,-0.29444041661592324,0.02435335129258528,0.28055299242057585,0.16529663049543655,-0.08604301572610719,-0.0019375740300499654,-0.08267635331404227,-0.04120335596723191,-0.01722865804241857,-0.08398309025792078,0.08155914583346419],"input_depth":8,"input_height":7,"input_width":7,"kernel_size":3,"layer_type":"convolution_layer","output_depth":16,"output_height":7,"output_width":7,"padding":1,"relu":true,"weights":[-0.13931472705885387,-0.0977358961265286,-0.039260129275428636,-0.006423703855059522,0.038444217931816745,-0.08276546822270854,0.08238852165983303,0.058235588477345786,0.06123833045785446,-0.1930191788416439,0.06721110644509118,0.05184731653656907,-0.0560292469294028,-0.05029235247749859,-0.1533887159135698,-0.11958121163797598,-0.09952109738780446,-0.01702267645719648,-0.024696889282719386,0.12106281669753226,-0.17866729499075906,-0.14069199000295213,2.5561778018649768e-05,0.11690592253915515,0.062224897010838734,0.08767921563359841,0.15994155705969787,0.0503489702337377,-0.09148252563873915,0.007145712141756714,-0.013291414983266615,0.1007197649234534,0.15463614732128342,-0.19760556449996702,-0.00038524758670019225,-0.09529144547737266,-0.08855505625310973,-0.056350891499891524,-0.1445236681109008,-0.1621360832854282,0.0932576145739562,-0.11663824440501341,-0.20431723718551162,-0.0835576679262836,-0.012641577857828866,0.1497349577051571,-0.10067338789043159,-0.04914435569192041,0.137716679267884,-0.020739167314958368,0.014370261419835367,-0.21203524499696927,-0.021615041288350085,-0.19106485431449982,0.0015490449423388672,0.0416333532408409,-0.19434402768118858,0.0058231602578968835,0.024353344013793986,-0.09885628724791377,0.05360482774886702,-0.128017464720682,0.08411079329535981,-0.1163202249707983,-0.04760705668050304,-0.136206076788918,0.0607534534300542,-0.050980515779319405,-0.06656470646212902,0.030845397907465787,0.08473439855069036,0.051346323158842855,0.12424513248535105,-0.026910882189520466,-0.027098741110559633,0.036216163362833356,-0.2183863001369496,-0.057349413769462884,-0.08458578212772153,-0.0037389773556795397,-0.03511757496309205,0.0734620526252349,-0.22288766431407775,0.013268071390221946,-0.14944631355996146,-0.21016714862129776,-0.16957550143788083,0.053389713180535724,-0.27084451206108046,0.16160535450893154,-0.20969732734399255,-0.18471537489848,0.06551088081733933,-0.2074571728219608,-0.29606980568281577,-0.22694831870979953,0.3275703049251813,0.3084807760721592,-0.139253221296898,-0.12445948455018425,-0.37127013660178354,0.004125671684858631,0.010324584738986743,-0.22740491107928784,-0.042216326675870365,-0.17603340721802363,0.04174560608999785,0.24055108308357764,-0.1122092895768866,-0.21152927020012866,-0.303466851927699,0.3397066267436606,0.3386405527833714,0.4145154752239979,0.09530339002305521,-0.3526256585082834,-0.03933652236134646,0.1271628996959818,0.2963141872966698,-0.22031603267592542,-0.0735723859179422,-0.15188474289907322,0.012762071744231931,-0.24177144658739766,0.006927477865024384,0.08558675279188636,0.3893401061012068,-0.4661711187876713,0.044232678799463,-0.1382168132027225,-0.19903395453033731,-0.2544520037027685,0.2402694078211168,-0.07216664753927218,-0.2581868954184848,0.42275407075737076,0.3499011409356205,-0.2371727874892312,-0.11392563068661767,0.14724036640628124,0.22465820931728997,-0.31674514821026273,-0.3173465321791367,-0.06593855890430726,0.08171708097887431,-0.04473623123409884,0.05274661172444277,-0.10762267823707877,-0.0046374079754041495,0.16374341384160854,0.10487521383210677,-0.02871365466121123,0.1409412316329461,0.2326853878811002,0.10904834979931909,-0.12802251389801922,-0.042044564134868075,0.0992596427351494,0.009099191909160238,-0.20257056866528725,0.040650896902293385,-0.03291938110386412,-0.15391917368777716,0.2875912387084077,0.021407574988744526,0.012060769968084641,0.054016414407859946,-0.10482438104504871,-0.14637004294395195,-0.15295400525369324,-0.2353099845149041,-0.08411567257277193,-0.06318205423204447,0.056919843321208315,-0.009711026034982232,0.07384351011936416,-0.20683848834403257,0.0029482304402638757,-0.19576635903191397,-0.014732017620161453,0.06336422731033552,0.17098464538185787,-0.025572697935343437,-0.21504495305913263,-0.049693629449032384,-0.22830732989459063,0.03265624816893418,0.01939772473845953,-0.17671740419503987,-0.06392484150062198,-0.22803319707468825,-0.06744657456625683,-0.15358323779716637,-0.11824028929649619,-0.04582536869223345,0.05305865684937257,-0.02366536010662577,-0.04685947071398331,0.1462030386720145,0.09179749609235835,0.045728105601808476,0.1786919259167327,-0.2643659784488928,-0.02457665969791743,-0.14624201207154391,-0.19795751758604044,0.14998784950692076,-0.06866363624350265,-0.2239568688961578,-0.09815120204032501,-0.14317109739873538,0.15668536356950033,-0.1018335352182791,-0.06267171864265596,-0.15895030018337872,-0.03903749328378939,0.011443214861415802,-0.0301773167349544,-0.06306795998866221,0.1465288990750508,0.10603772846482601,-0.08745341977395882,-0.2016989224511655,-0.052428733360448634,0.11960495497412803,0.48723758043825527,-0.058285645567584664,-0.041153620763956,0.2292835611830152,-0.27238533415174804,-0.0019420050935253063,0.014346928699847196,0.0697145344816273,-0.16033391687872303,-0.07165986832462791,0.019474767197739263,-0.2940166745228579,-0.10192953781472024,0.11967032784394085,0.04526395774136418,0.043016589579851695,0.18898633778860233,0.17394164005728496,-0.08240785600195996,-0.04696423297539237,-0.051270998044769124,0.15285167244990544,0.16670776972488216,0.0017811722292671692,0.0331499173168831,0.23376309613115243,0.11320183033941332,-0.17534619764847495,-0.03978290248421579,-0.2588658414738614,-0.29556852542548123,-0.2737453477862049,-0.6519932751977925,0.22618506367491242,0.3002497499713186,0.2287375164094085,0.07496079796844604,-0.0516218806307094,-0.06326262777765437,0.015229205555670434,0.18935948258904028,0.02877944906942781,0.014386588532009734,-0.09479221698981836,-0.08196381853822142,0.05874550198703565,0.09507450693828716,0.11659465845973782,0.23302393913490388,-0.06875489444970596,0.06459566152164581,-0.18700689783638927,-0.2546700003657268,-0.14424658050606495,-0.2294336445413206,-0.3449057650008472,0.030598926460045698,-0.15597793814907435,-0.19468447042988005,-0.18958932340441595,-0.01827021005152099,0.3150058922069072,0.355664744204741,0.11077754235938912,-0.06723358825418897,0.001251744155873489,-0.07170158337375357,0.021129277835056044,0.034551204326755,-0.009646036128835588,-0.007707918600978444,-0.13477032273248077,-0.14242594315829685,0.19597191044635687,0.16751560744569663,0.18741933691578577,-0.33325493239603565,-0.3512245678145241,0.129769516823866,0.04964485098079203,0.049114470192643256,0.11877970218139748,0.22264105062475892,-0.02223869986188551,-0.05350892191990458,-0.30662474336595413,-0.1774105132788015,-0.04385693388427526,-0.05799148723367654,0.11515614263880601,0.28981261276312,0.37551843048523353,0.2704401597657541,-0.3027477986714686,-0.5611233069281999,-0.6667587086754808,0.052091961263567334,-0.2298391587950513,0.23427402589380186,-0.022322226345105334,-0.12958732331031064,-0.20180840586893004,-0.15964852317995762,-0.33783307365050536,0.09699663725403396,0.10910044051053508,-0.3131051927092836,0.7521924261711126,-0.13695068001384345,-0.05672244169555743,0.19124040571215603,0.13123322227017153,0.009000371987194588,0.11367236120742917,0.2600776682083286,0.21893161995762733,0.25072855690143864,-0.28755091288607654,-0.01197891374165751,-0.0686364039831067,0.01975365465923829,0.136415057075003,-0.2803422486912103,0.22405007824752599,0.5099516336545845,0.012549034347043617,-0.03939514339623146,0.1922228060679797,-0.3609260080402161,0.08877824274660126,0.17208795115643505,0.042446023565154575,-0.12987786016375874,-0.05434001572934278,-0.028059666264152038,-0.18695666273451184,-0.10738127168882973,0.191177091470545,0.14434144441599017,0.1971316912649517,-0.08155388581815451,-0.08307444274963459,-0.19847521242818886,-0.25721073268105266,0.14127629420695087,0.20882338933799724,0.010702266058689824,-0.1868877552892973,-0.07684471061870933,0.02602509353140702,-0.11532113093894394,0.3255710105077907,0.3462089625292016,0.3521021856958164,-0.08588504931581264,0.06479853061637261,-0.030094893929341924,-0.04037888749501384,0.2558330893548027,-0.5424015889690701,-0.28486277372630747,0.37728069110770457,0.021990708049954902,-0.2510649183143012,-0.2942278073923574,0.5457977864057914,0.38770361368299333,0.5398477445377411,-0.15519272464274006,-0.40259730524919224,0.44342645966605165,0.3646624973184419,0.6501991500566658,0.12855775462289942,0.13751849766846883,-0.6184529301503747,-0.07935747059221697,0.15587936751555784,0.2338514174941777,0.303939685259285,-0.023004949379520048,-0.03684052615584525,-0.13854049582289324,-0.33869065307524115,-0.2649714254527684,-0.39302373192592693,0.19027068317222937,-0.11595395123178438,-0.028856093887791298,-0.48866808554257307,0.022934205729633755,0.08367701145881487,-0.3329158244977818,-0.33575601064748267,-0.24514104888498647,-0.6104245446719565,-0.2643588463513279,-0.1590753811045579,0.13603483747683173,-0.12049529860777002,0.115562025382909,-0.25376871803858303,-0.3899058146925634,-0.3686518299623162,-0.14939314959983474,0.04967134203382756,-0.4468707316898291,0.22309150297814767,-0.05306481256679108,-0.050622758876988985,0.04170770073471043,0.09802079299133142,-0.07453629406093511,0.019318661329782886,-0.1376156264050844,-0.10416129751273911,0.12706034418544837,0.05685054062212385,0.35923794986232943,0.30334285177890496,-0.02120467182206328,-0.3115771007178512,0.03835372087793261,-0.09254667687300683,0.17313921725273976,0.47947140830483087,-0.0958549896835509,0.08594318741797664,-0.3875593867437696,0.45642546037936577,-0.31231946541085104,-0.13903465421700753,-0.24050541860792246,-0.17410407444136008,0.5039434545613932,-0.21017838889763457,-0.04212248443797832,-0.2522605012357624,-0.08940830259474854,-0.16381910522578777,-0.04953689702841979,0.1410906937947983,-0.16110864011770337,0.47154409068156705,-0.05049566698145345,0.0992203450199932,-0.10305527905328575,-0.3087890228513886,-0.2538282727399171,-0.06208237466799501,-0.0051893640291882336,0.08950248155788672,-0.10100458475249144,-0.1257413559610083,0.08130793752638873,0.16806048238782972,-0.08817421844421516,0.2957902958675019,0.044908724684822106,0.015310548279074854,0.23228190825873987,-0.3695509723852258,-0.5619606697532236,0.49654178076268435,0.18134569013139146,0.41576240445087903,0.12995143718479815,-0.1370105689167028,-0.26146323241468433,0.06524482480389922,-0.033882865617354395,-0.27741709494827665,-0.5760226094590557,-0.326868578672739,-0.5526449244953763,1.1195403098448218,0.0016665128002677106,-0.23227329963345617,0.19909510469239983,0.002089979073414947,0.21471605605227878,0.1156398989436908,-0.044529071017074096,-0.06951039801314442,-0.28517711319381567,-0.12536618571007507,0.030023423493239724,0.03070310000655839,0.31921080220198567,0.04041827133878154,0.058786331640787476,0.021707313506143758,0.12862184962861592,-0.002955026781961278,-0.07975752758942418,-0.059175860556706025,-0.22615126353650117,-0.21923152314909844,-0.036328290594232066,0.06609830530472238,-0.00907127355677265,-0.165188025770934,0.06514434240441642,-0.249070016675942,-0.007121202931637767,0.01876464848063793,0.025026370010252375,0.028695159475770976,0.3636860849270466,0.17293263866533862,-0.2330437625831311,-0.29964454598527585,-0.219626754007543,-0.1520281352226026,-0.2639730726733103,-0.3843056324920137,-0.10644946651648837,0.10510395786876693,0.11077189669500719,-0.017523750101582393,-0.01796647861302501,0.015329666723833396,-0.21768540728900512,0.2559537165504636,-0.003940297928309274,0.16866491867902744,0.12376840520103033,-0.14108133976730472,0.036497451506636455,0.0626140977053636,0.12733537478878781,-0.0556745986655247,0.11472447506584489,0.31193544336525436,-0.19399959094837152,-0.23292967905494516,0.12689449383141402,-0.029820563527753967,-0.20138428648071702,-0.3759342395793566,0.30018219694262066,-0.2473915822171347,-0.4447970965835577,-3.448262904974602e-05,0.12270496520476469,0.16132724927850758,-0.20697447419169268,-0.03710735881223128,0.5063162641161542,-0.352120010691388,0.0601669915538633,0.11083565255087473,0.014537191009199174,0.03619726274378409,0.1707303350275227,-0.16757577320200387,0.12867966279063014,0.08383327167489839,-0.09539349686121429,-0.04488717521156941,-0.22972043969736863,-0.29758496718427285,-0.2062569654815443,-0.023905688537746217,-0.17936323037562987,-0.29587709800412276,0.25206828643173784,-0.07205707577574001,-0.1946385695848103,0.3891689866579081,-0.143660605228809,-0.2609336080823914,0.2607987277203473,-0.3507397219440761,0.08100840420663206,0.550714646371339,-0.4354116306659832,-0.4480389802921394,0.24540170103226613,-0.5061071377308133,-0.1879544633746747,0.23494445591652463,0.04461374761453373,0.04405810883058417,0.09356798390656654,0.17200324084658178,-0.103250502206696,-0.12586066168594937,0.9597180903987044,-0.15802687160965465,-0.4385129508089341,-0.556305289523816,0.39852834771155854,-0.3070641549892116,-0.7866116329428667,0.18600912367274025,-0.5252419980207692,-0.3909067817656736,0.045263490930773836,-0.2869873101460958,-0.044285808654972884,0.393935391463448,-0.05462343290587126,0.39986839330123847,-0.09450402602205892,-0.18040135053810133,-0.7506269175606743,-0.04754585031610269,0.3777569096230405,-0.10683988740687429,-0.1664466465120149,0.12198213052739379,0.42234543598798313,0.2355320857921574,-0.20954403703685132,0.3829079993250541,-0.06200888433061916,-0.6181446010918809,0.038024139050515736,0.5464807789625143,-0.11965783685577186,-0.2813949577731991,0.18658324729354978,0.10886544074752635,-0.17689975456211288,0.07481178729653573,0.1802243686322323,-0.11274371661410043,-0.18016040955791468,0.0014378604467012493,0.0475885300890976,0.005948896524627989,-0.031692457592193725,0.04166988628405567,-0.06193201022813521,-0.004255458849072372,-0.0826593050960495,-0.01098691257350477,0.004918331668365058,-0.031623685740880376,0.024462014469214047,-0.028347763846172398,-0.09727709019667334,-0.07563772782242105,-0.06208281926681677,0.06084498268728175,0.054175965797969634,0.04432284008834155,-0.1568078480225325,0.03808805299005354,-0.05850664201815164,-0.023028700669491777,-0.020151152093855724,-0.03140945169882545,0.00409449238048256,-0.0007812049704821139,0.0034425063984581724,-0.03660194328417898,0.2294817855249586,-0.15074371121416805,-0.13173805111757592,-0.03860027345405312,-0.08958295155191738,-0.21948533213100005,0.047773789331698714,-0.002247182568889572,-0.16336176631334376,-0.10661476564772032,-0.033271620529033034,-0.23876860125280253,-0.0163357644367947,0.11213144335543242,0.033549819156569294,0.14087668439704112,0.07000625611644468,-0.12358791731102081,0.08004029789757908,0.061091028164588564,-0.06284612806002264,-0.03605623371638766,-0.117878251164506,-0.2265551365144551,-0.1485754297849098,-0.20132062261422598,-0.08908145565661092,-0.19098376116084398,-0.12527510103218523,0.045567328580274846,0.12757777221503439,-0.116414428724683,-0.13629992374284128,0.14618572051417641,-0.03981977474316216,0.08297417892745716,0.0075922482229295865,0.05069076396621684,-0.06236417410061962,0.1763209081373764,0.07314681754117708,0.15730949644907044,-0.027138329674606634,-0.13480327720283086,0.03524398424341873,0.054302764511555975,-0.011733639322425124,-0.09528356584035991,-0.024571325216795715,0.06095682637675933,0.2113382057385068,-0.022394469542144527,-0.05414356293118204,-0.08384280689737117,-0.05599064801301307,0.02994714188988052,-0.1506946854341899,-0.027662619414484415,0.10542942121284911,-0.2515783744355453,0.07167017727507241,-0.1845204178843906,0.030722038945162334,-0.13765618462042803,-0.061809336959542924,-0.02389208954230313,-0.1376266772098561,0.23297704186157,-0.12072866060832627,0.18585095924395809,-0.3264309056812577,0.0026009939518073562,-0.09563662618384387,0.09692189194422948,-0.2736579420481725,-0.2097716138409014,-0.60614611053924,-0.3563125957120878,-0.07174961073985521,0.4471109526715944,0.02139060911068443,-0.06898899692460042,0.13168051784180362,0.5130703124532573,-0.25683385916579743,0.41437617874208127,0.2495136761122388,-0.28406396340943174,-0.1763407557635862,-0.0996035979443265,0.0633997688796286,0.41627593687506104,-0.07968199838824834,-0.14271237918973836,0.23204890193711214,-0.12691469750038478,-0.1266673883824973,-0.25117038087751775,-0.12796050072719004,-0.119271127107089,-0.347062271574947,0.1882967672377671,-0.23500738506280863,0.09930764245538157,0.05448505740403826,-0.4616160767500861,0.26206735617096616,-0.06649532622474845,-0.016443687876787818,-0.11806070449770596,0.19341880019015106,-0.02415572593309462,-0.029496441469791357,0.05187670748903478,0.19494562221294603,0.13581773632933472,-0.06413922682531363,0.028651130344803957,0.03162975167472708,0.05178151725688865,0.05493401705649953,0.07624281033210177,0.11649905835757686,-0.21061541620513888,-0.15014558886935192,-0.34801596899988024,0.1008439797747367,-0.36747602586833555,-0.41544002748582326,-0.218442193075262,-0.3051290031711131,0.1321009405207226,0.07514188455382079,0.2700300462423366,-0.16573467787400545,-0.33857594125767276,-0.06126819834916543,-0.16472050207525635,0.21476445687107362,-0.41005561479467373,0.09683519154547075,0.2170863196300818,-0.13742054160750525,0.05732532580120905,-0.6238382724212925,-0.3200257508614524,-0.7471786690303412,-0.12415673179069853,-0.46976166102594036,-0.12688583175588206,-0.18411980058712327,0.5838972872250408,-0.09717997569846253,-0.12716456987226293,0.2826439065175295,-0.041755241606093604,0.11090977441490409,0.2841085553580177,0.17387214419667132,0.3540436720878479,0.3030591416239136,0.15657985146887457,0.49812204696700035,-0.2245106796178326,0.5602579289986589,0.13957061805064938,0.038081565052911014,0.68744492760234,-0.31148477278982756,-0.12163881000464151,0.026118565703928176,-0.1255570858917805,-0.010961065447263722,-0.01369407833931383,0.2518231866524791,0.019311758359039394,0.17423839197870744,0.10731585541244071,0.3273328840490192,-0.03684971433228259,-0.167762372357745,0.06858459960910768,0.1803299023515384,-0.056073601396267665,-0.012536128555317438,-0.09098006693302788,-0.14538451677594488,-0.14249656274155112,-0.012660389280497212,-0.047173380391815296,0.4306645199253505,0.11507148120067616,0.41950518909780404,-0.06328165617113458,-0.2772389815884491,-0.016241710302779953,0.2563871754100609,-0.2624671745218657,-0.5693081094001088,0.05055064876192304,-0.08039889563938041,-0.06310685036881734,-0.21394644095325105,-0.14516662051847146,-0.11016744998428515,-0.12286368654463121,0.3479384671166014,-0.22666691791591959,0.08509507588938887,-0.547704957293762,-0.8028546239793328,-0.3842302703160777,-0.381059726107101,-0.12617451250206055,-0.3687580196478315,0.5464608346346668,0.5966653459456054,0.010176601220951606,0.3680006333522748,0.3251795167446823,-0.2768589967754622,-0.5607829706140917,0.17770667538101598,0.1971913962242502,-0.140751284901997,0.13001939532737278,0.08125023388969678,0.2296676601584373,-0.04320777034213721,0.3096207752349501,0.30782177143584294,0.18918615178929657,-0.19728146174758274,-0.17333066332191555,-0.16974570825561766,-0.16862309936172118,0.10354720379319128,0.08779916857745244,-0.15354006213864915,0.28746879513243134,0.03968699104526645,0.4888796238743629,-0.6763220547267046,-0.630485804344812,0.09117548894041164,-0.15227563428530996,-0.32679796445043896,-0.20640645098343968,-0.10454381733354975,0.6729056973357451,-0.27836909719712893,0.5012294790470897,-0.10537943394458175,0.16802773004162536,-0.0850798195959534,0.10813191173932861,-0.0011572038102444708,-0.08340159799043051,-0.058661703793491955,-0.06124416861910079,-0.17297982867596007,-0.24021874127349985,-0.09956974286460449,-0.06851898814989299,0.09526403293294122,0.10696207244755508,-0.1431612312609396,0.08992214006205168,-0.1289012416771357,0.03674014676243505,0.07333962549997036,0.06880302155675397,-0.10016985699176999,-0.19419567912059885,0.1654728409045896,0.2302140008113806,0.3323373837021208,-0.035756705907656235,0.010341760497179907,-0.06315363162730515,-0.12986691987322355,-0.12379972905454302,0.09739667537209026,0.10191165905100226,-0.0437570850544381,-0.11948406005754782,0.08945193710866021,-0.21203771247067044,-0.08971774140976213,0.016690662813996008,-0.27256095533926084,-0.18202106837009244,0.21240729528267202,0.2511800791968945,-0.0011987663969648377,-0.24765503387952906,-0.48384073806270445,-0.2891592225749248,0.03342368089117176,-0.12168529918740306,0.039045802257427376,-0.013864052398580393,0.0036502961880674196,0.12393976720276077,0.016542979926325967,0.13864293459719207,-0.11796166054826696,0.1403956605810123,0.02984861893521684,-0.09062665502863777,-0.15800657552574032,-0.08915673143581354,-0.14641889985128015,0.07461488727023487,0.03119241938333358,-0.2703519765114841,-0.04143366627475055,-0.12854197073437493,0.05398579593240728,0.19634603974992063,0.04788945914738357,-0.03341223868882447,-0.5462512480961623,-0.22335561767296452,-0.11326205990073386,-0.0681008810883391,0.11603793538046232,-0.12230011735638906,-0.09231234249090166,-0.09226572856549216,-0.10238725006850383,-0.12338401436315269,0.11972505936151781,0.10762077557010144,0.16542564606607185,-0.2673395048759731,-0.23806987621067316,0.19835358561948294,-0.24493670483201585,-0.27344392274436424,0.17419445998976804,-0.14593817898890216,0.047090841195586416,0.2931655961768726,0.478201510268713,0.1831394744810726,-0.37011476276019684,-0.4017702370952694,-0.2630707549097883,0.26610635678039574,-0.1760245420578159,-0.41932217231637126,0.3939754937320128,0.3530781194476725,-0.12838223270288573,0.14384563882188897,-0.15000459139966343,0.36166760544795445,0.00424169867330695,-0.3990146544595114,-0.10529139892292196,-0.21805237696810836,-0.3529156525826802,-0.23508335968636407,0.2029373732707904,-0.457669738069869,-0.6292313725597559,0.44186667369287597,0.019639679072380702,0.207966575948312,-0.1113007030271522,-0.05647126433308678,0.00986163158387958,0.00890091090265032,-0.2223183183783796,-0.06334358322211119,0.16081870141597296,-0.042328856392574235,0.030030566178244227,0.21337700178181598,-0.31075771786103423,0.0709264628238159,-0.03268123229980557,-0.039952121279409704,0.27719678096452544,0.0133038849980595,0.08153644443806489,0.7546166106070886,-0.170492364881965,0.009585064846498709,0.49425592411804137,0.155663154108337,-0.5798801746626072,-0.15026250516623882,0.20703009824979043,-0.07186163425151482,0.0507057512436447,0.08037018751758106,-0.049794853473785004,-0.05316327560079802,-0.06245170981704267,0.014702115396647524,0.0633286001099916,-0.010412075639859577,0.030586248491531652,0.03541360560385315,-0.11042962884508417,-0.022947255496492368,0.296255541327779,0.13633175257849803,0.3229172642095318,0.27620991934764005,0.056238158722951466,-0.3635435607598207,-0.6828554248610598,-0.7041648434336476,-0.14884165771762237,-0.3437219909481473,0.39378610077954657,0.513127389880618,0.19582586275462774,-0.4824324450054218,-0.7347699563629458,-0.42282493348428446,-0.0716313442080524,0.11270194073855648,-0.29377526988777847,0.23759655833909862,0.11037440186860449,-0.4688021199227406,0.027255786581991966,0.12706684714455316,0.0022067184780244853,0.10653083669070687,0.08005893909090259,0.40439359023657884,0.1952992773058245,-0.023447695386739895,-0.49421474481196026,-0.5273633671773804,-0.7666117262768579,0.08226895118392037,-0.17176536207756715,-0.0021702934087060597,0.43734090592278246,0.1060765038871243,-0.31299160689982297,0.2269974900401558,-0.058989366247145875,0.041552866363610635,-0.14017882621105557,-0.016871032768095637,-0.19991196144107878,0.1533070988863809,-0.13610818350451703,0.3152672955813757,0.5317223710819585,-0.17661985095869057,0.07574350332496887,-0.22696475757366844,0.24749495105425284,0.171432797860359,-0.4013559176325172,0.024345084590189674,-0.5349244094623589,0.22167395251755062,0.19410611440870765,-0.14533937858343102,0.6822134684432635]},{"bias":[0.0026436797825813763,0.00036223088889227305,0.017222201415322283,0.06650834413565503,-0.028988277119952603,0.025251499689801307,0.016565888103750447,-0.023128334733868244,-0.00995158255567588,0.0008743661462168006,0.001287313320163072,0.042987438275193024,-0.014112646653995848,-0.037474414340241256,-0.018795298606669415,0.013163133158958675,0.04532775153254929,-0.04050076182544849,-0.050416403739610094,-0.0018348785196991662,-0.030779455846530825,-0.030553024165034668,-0.0008182246862704129,0.05341081651339749,-0.025906751809055363,-0.03978658744743196,0.001383747403831995,0.0025260172382357143,-0.01713637026476612,-0.00913254578418489,0.026106169090805497,-0.05673857230951153,0.014589364631738088,-0.0070123351548097065,0.010793168595580615,-0.0434405359300419,0.01565237245831692,-0.034393437138300065,-0.030050407444252657,0.022003977186396108,-0.0454747284263829,0.024137375230348417,-0.050606952426429895,0.013859478717743982,0.05640882561951988,-0.021423167004221255,0.0447543565062883,-0.008008577525102575,0.0032331976111267674,-0.015357433147316938,-0.005808082885021006,0.07644618197374713,0.022521959132052287,-0.00760836176156771,-0.025580628473467665,0.012144322130879692,0.00013302273761657318,-0.00894918450866125,-0.017320546128339817,0.0005045092161116304,0.046184984511422264,-0.011862143121883615,-0.005360898396345838,-0.0037176787539794404],"input_depth":1,"input_height":1,"input_width":784,"layer_type":"fc_layer","output_depth":1,"output_height":1,"output_width":64,"relu":true,"weights":[0.015261413242357648,-0.05767360930377885,-0.1383581704818636,-0.17760355631553748,0.1251216127892428,0.2186973076867135,-0.17357992222322544,-0.0358321143670998,-0.21758204158724975,-0.22478336834873522,-0.1278452594532038,-0.02538199536963605,-0.051280319742088215,-0.0945220914938372,-0.05247133506015179,-0.06736813379739005,-0.23474791188112484,-0.092883670203354,-0.06007016242353777,0.04424987071546517,0.17096029487558553,0.10889749629555226,-0.012910952200158103,-0.002446913991959343,-0.0800215868652555,0.17615386080607118,0.04197301748892968,0.13104703292925904,0.13622538989814337,0.019869382768041052,-0.034021288677068766,-0.062331077401627,0.07050719341403071,-0.012555521729797193,0.16568879795286945,0.11089408853031404,0.014353483190972825,0.08887986844041751,-0.1004330183369482,0.12403301455728155,0.09736821792249127,0.15897921313429028,-0.008582671805216248,0.05240464293338841,-0.08758088289497454,-0.08574279428726896,0.06644341936093677,0.15075327622935908,-0.0043433466716225845,-0.0031033166669126896,0.2534303381802654,0.03220065559476448,-0.010957434188432166,0.012216497850664584,0.18819489332897452,-0.0669900024731174,-0.004372460040894241,-0.07684887505867381,-0.057117675507630306,-0.11508491150542004,-0.13819737710185245,0.08575700276553741,-0.09157434704000021,-0.005042796946066276,0.022321814320198242,0.03501756943119899,0.05483711241153572,0.12270525847091279,0.06197705857702214,0.04248398025639634,0.15281740989618842,-0.026488475138665837,0.282993203811771,-0.04500173430187075,-0.10746700820753033,0.3260624966301602,0.06019555952271452,-0.0817430578237597,0.05681657686141341,-0.06235540918586185,-0.03772487538854234,0.0042065201112830505,0.04302715086829862,-0.026142505754401153,0.12116390733543406,0.14372893012474505,0.059829154822666895,-0.007180677526110436,-0.008897983963893314,-0.09091874898607416,0.17369397170657344,0.20346690498020528,0.11029350385102403,-0.0918056774985479,-0.12650065979001698,0.02039977967317991,0.057832818315841104,0.09905054405999504,0.06958815907296434,-0.10498646024181942,0.03322195391718512,0.053805919242428495,-0.2144794166845919,-0.053203222292802534,-0.01297874728207333,0.2597067787417566,-0.02181544836192541,-0.10906222808162253,0.09181210176118168,-0.11859978643545455,-0.18844042705276218,0.07123570519860575,-0.08510202390539051,0.07112849483126576,-0.12747593332004717,-0.05067085167547249,-0.04192024975467108,-0.05378379370694976,0.19460346661518735,-0.15363118208111665,0.04337169012828044,0.044123773087750166,-0.016904175514008954,-0.08282656215097937,-0.051683946847692175,0.0778509848906748,0.08210079687144163,0.020917805705517628,-0.024735968032589876,-0.03965478880620578,-0.0923664443307674,-0.06790541383972196,0.011842784077220359,0.03543528119318552,0.18332313139249862,-0.05973506263180961,-0.0004497241052548826,0.12665713074867307,-0.0009115968097385214,-0.11563504305365428,0.014324077787774217,0.10005560244200083,0.08405262547682661,0.10098543881018464,-0.10967292417607362,-0.022497277955293615,0.010877647635575048,0.007524610307106399,0.021294252311165496,0.03025926519273874,-0.18798046199075924,-0.03794222154272355,-0.16355400735022016,-0.08107226513349632,0.062279299930639805,-0.19069615327472172,-0.27135575125824024,-0.1370618535109584,0.1290511597752162,0.09337617330134687,-0.009746531790129406,0.06492751863920283,0.03466825412633844,-0.024550531289527767,0.055122351187714365,0.13168191441626612,-0.06500249388926546,-0.014472554523799098,-0.028870061440109923,0.18230771536340684,-0.0384192776633106,-0.027017393921759152,-0.0654520566640987,0.08905430606127586,-0.2401051386493626,0.01577372407099039,0.05302102147491838,-0.018360314801753694,-0.011752813552860139,-0.012266463816166038,0.11492521361087706,-0.06623604034671114,0.017514895193766717,0.1469011555311202,0.23756576295616985,-0.03140510137771626,0.12245970679135273,-0.11581858548313773,0.022373583237544535,0.0777628963562292,0.07010396885333117,0.08369528913124441,-0.058322637349027706,-0.27039782217267727,0.007674405643740904,-0.10709877127978328,0.09524465032883755,-0.11409709378007162,-0.014211968775090617,-0.00571952485756474,-0.0908193715620207,-0.19846374964147395,0.008900743543422374,-0.17908258528067103,-0.14642871775772065,-0.18508165561881235,0.10997499210785171,0.23598031185305335,0.25837431578255726,-0.23278885851158337,0.019777807611468468,0.19035005816589515,0.14585618987692434,0.11569726397431494,-0.0133064104349785,-0.04531454019304928,-0.007913967267357193,0.07656370245336716,-0.05692751635066666,0.0029117605567496193,-0.08586506964371685,-0.04343772602244711,0.149150926807488,-0.045808125450841286,-0.025119785254561062,0.045439429254681155,0.10380351456710306,-0.145213854822869,0.1312049595871666,0.2517245090950073,0.2382411788534436,-0.07415192309635239,-0.11326753844260458,0.15193649740820908,0.18046981135729126,0.06423179400219228,-0.09279649722404645,0.07308082013034911,-0.10388538262014789,-0.07430726841272742,0.0028658545712402996,-0.10479493644119417,-0.09052265551465377,-0.13479931052373473,0.13849984125074505,0.14355217036505125,-0.05560348907336546,7.305535072429048e-05,-0.11913505354871778,0.13378331735798077,-0.06347797791777661,-0.05763861220407292,0.041371318823267784,0.1446313115420496,0.04955397101388446,-0.21236414854142768,-0.21612374860773717,0.013336092229325242,0.08568475624569628,0.06063678361140391,-0.08005595333620796,-0.20140344549627637,-0.243929198044235,-0.13863811088207081,-0.3161192513127722,-0.035842907499155516,-0.19718345417583052,0.0031819362806930103,0.22228783552218997,-0.06653739624231114,-0.20392713043957955,0.05916302650648422,-0.011146038686220815,0.05187537460371514,-0.043453783341738925,0.2718887420887157,0.2658499691940881,0.06424174201788575,0.019074789714534777,0.23698191523405204,0.016189156709547466,-0.06237742470470877,0.029944555849454622,0.06222812889171917,-0.007043831336813976,0.17103516527588655,0.04710155463489323,-0.19608610728708428,0.15798156284859757,-0.12353555335926339,-0.038458474917284866,-0.24842783611846225,0.1235677771932402,0.16051507981909982,0.0594846437525638,0.04148003334190009,0.057808086319458114,-0.06031604461777334,0.08633613556587538,0.14078742712405876,0.03777869032322534,-0.03945292564587513,0.06794422511142077,0.16214000604279116,0.19479638440357408,-0.08843265267407141,-0.05370398502946996,-0.03660425826765836,0.07033396483028975,-0.06961349508696005,0.19008944839255204,-0.009513066071405361,0.01384618068591645,-0.10487272580606237,0.050310387185704804,-0.32350931832182944,-0.07869389918303776,0.0772521358378471,0.011075640091484656,-0.23851261753270656,-0.041813614549707175,-0.033249638072587615,-0.07443779805683919,0.14888985400562108,-0.19041658374669354,0.0253519181672223,-0.08504108825541484,-0.007519814788326637,-0.06408962364976152,3.005952182500803e-06,0.04438253207531521,0.04244174052501406,0.14576150404753294,-0.09178465304538092,-0.04871461400816379,0.049770666907469736,-0.032957653566147105,0.06205127749995287,-0.05917234738401199,-0.05331160189982979,-0.10802087188522821,-0.11208219523476672,0.1667847735720417,0.048677877835087945,-0.15491771593909578,0.15604560920758875,0.17230607075777776,0.09671070234937736,0.25407503812578386,-0.14367032823574305,-0.007501912125046627,0.12758685920863816,0.2011660857887201,0.10169007565548306,0.0037758933845377994,0.033421386883473056,-0.027943985880451074,-0.04870427433846755,0.02473281730144687,-0.10232706296837431,0.10737592347754477,-0.12071992371782723,-0.1298369624456454,-0.03388199854470317,-0.007191706865108538,-0.25729454903046417,-0.09725812043892752,0.08060013962193062,-0.04611946102071294,-0.14489277735369363,-0.03189147939135369,-0.004487165875496378,-0.03887272260719144,0.14673274463864092,-0.09140692988708499,-0.059060375475013596,-0.04810405167158199,-0.011862251173683351,0.10147538033992035,0.23146052340511294,-0.05792537277810652,-0.0449737777327841,0.023775739225388122,0.14012568385241536,-0.24437514661277926,-0.050981344423591944,0.04726058425744217,0.02067690012258912,0.06903378646926032,-0.013621218393320273,-0.056287516311585684,0.1505918653903271,-0.07278370641564912,-0.009031310835256365,0.16642101993832412,-0.11669272559414993,0.073837363223973,-0.07063771154047102,0.11347814842747442,0.026580376205283005,0.040060475161157356,-0.08307305895368285,0.11694323816880045,0.21912522788206096,-0.0017141870121563923,-0.04116771815235572,-0.16940847033365186,0.24332110989037642,0.12127872381319367,-0.26746712852306587,-0.12587741160689775,-0.12280541243440586,0.03365620912733947,-0.022979297034891086,0.02393165774700578,0.10217894714283476,-0.26999300247154867,-0.004309995813142808,-0.03459883615528474,-0.2308137304192869,0.031267380781899834,-0.025882462344226653,0.0911843801754659,0.2741526150186711,-0.09526801560544886,0.0691976836855827,-0.22370167446649175,0.035210444359465874,-0.11034727651418566,-0.02731471899166213,-0.038828948461179874,0.14674237495981404,0.21747804437343055,0.07762872955770195,-0.007959033926366254,-0.08768685301276018,0.05822165285807152,-0.10043371546378402,-0.12305027675538747,0.13451494893789057,-0.0651983800095698,-0.0446540022717784,0.10344236633889906,-0.1059543695120924,0.0496299411941414,0.11740133895622137,-0.0882165103874702,-0.15694225947867013,0.03414252488970585,-0.210861674118023,0.14467249353548173,-0.09927903759829212,0.02942813627381102,0.048784849848901246,0.11976039880573985,0.10803388754142086,-0.06679761667697018,-0.0419422556101766,0.16881576048662325,-0.07914888355418216,0.06752805773591268,-0.14981256512874008,-0.04138188982711782,-0.019703102451933505,0.0683284621609782,-0.1765172812369702,-0.024483440044731682,-0.11788741341690274,-0.015800425028336944,0.04750230109099339,-0.022359136403214443,0.042793129998916504,0.06829102282001931,0.00210183096932726,0.038129632314617655,-0.028053777401041063,0.06316428616738073,-0.07214701222165654,0.0466159255304285,-0.04997042189631894,-0.11834117940222746,0.008376980488804846,-0.015712534622079916,0.06734507124300529,0.12688204277830395,0.01643650660817259,0.046952375276651866,0.1032716568806526,0.04126721575239477,0.044002080415622154,-0.043113613961205624,-0.009547422156285007,-0.1216295600426721,-0.17142183725108706,-0.035424469225269525,0.007692147091414213,-0.06289598962537324,0.14352118573283817,-0.043475454707399046,-0.026590510696877144,-0.1270154935515624,0.07319053646180308,0.024597556648804933,0.02959388173178651,-0.07403583250091134,0.1473595690383241,-0.07575694938655493,-0.08113103727153625,0.15520453429337056,0.19796258795731958,0.06629239946477293,0.047848572171380326,-0.1072729934750499,-0.11334503400617053,0.028613260470518598,-0.05513728978488072,-0.19492000152358474,0.12515965498938608,0.11085042408840505,-0.15994793274427718,0.07608473838376258,0.09090461741179853,-0.02710262477453388,-0.08279853553680351,-0.13970523327347245,-0.10283764416137851,-0.10703241862207223,0.015885531270135103,0.04663113674962,0.04178876681031695,-0.08288198499261086,0.11041216060096212,0.15537947565917132,-0.010962209276312763,-0.09842897069100554,0.052367388231808726,0.02156268244918671,0.12918561313904092,-0.09220948134361355,0.04097648656810345,0.19750736376825204,-0.12165606841934491,0.07938829156684335,-0.057934296554362524,-0.04568735006956933,-0.017345574906564402,0.04754880686128377,0.021245105993764734,0.013828337740687181,0.12267515525336044,-0.019136323299695317,-0.07248167456247857,0.23078164949633326,-0.1357919763363319,-0.02198927830130204,0.08580255879042409,-0.09765669319622011,0.21851086946770104,0.1967186829628751,0.05231833774951206,-0.11348536713968005,-0.02329834448274112,-0.179390865777212,-0.08820281446132823,-0.07269038825381767,0.11930319656546046,0.05789573394954383,-0.10152108043064663,-0.08906430403788541,0.08769432726977945,-0.12215455023862691,-0.05906896506985326,-0.05253509284084648,-0.16838857946963684,0.1102314065138236,0.08395090258224007,0.012234276391335841,-0.32484916856514673,0.09233143217518704,0.24448152461694156,-0.021255093313349478,0.0508341174304965,0.04839678628264138,0.2138822584898641,0.09195196901341722,0.03442071916027381,-0.0196071881623871,0.008003745751781855,0.06055444729117496,0.2130379002839196,0.049551341398083044,-0.3538120303954584,-0.12207124231105898,0.18794319267607204,0.16844102385908416,0.2518132312755373,0.04007808234947417,-0.11741760965054546,-0.3582231456149667,-0.08316696550514463,-0.0709295671277752,0.15733165125249854,-0.00814875840144077,-0.1443193199891239,0.07808088770104286,0.20804952915189953,0.3153232923085507,0.22703284980861094,0.00806903295565441,-0.1815104253553836,0.050092665824882567,-0.04719951417703306,-0.02669755022791962,0.30999994933837943,0.0325586732815138,0.012316213065217707,0.2737532083858493,0.14727345506636597,0.004821682831469601,-0.1908644111034974,-0.31427645434532486,0.006751462518012784,0.02336823064858899,0.01764173591291419,0.07082993712328184,-0.04280295191931935,0.04899339806706885,-0.18420743403070114,-0.09003021854608176,0.08693453056138176,0.0026406711786457777,-0.015099905626226354,-0.09039815190568248,-0.06006211497101361,-0.134039613595122,0.07766430465540008,-0.006699791444767729,-0.05309391614827287,-0.012857322089978501,0.0022515978322717374,-0.009664072804591424,-0.02161929511526757,-0.08148404579263013,0.07639318835621406,0.15646221815187614,-0.05872896910370244,-0.09171984992780842,0.12853075116028348,-0.11004919284298767,0.05115161523251512,-0.2714758243472523,0.029001504613528524,0.027625419630669317,-0.05754828631951481,-0.02026827780563395,0.16743190027588412,0.16020539941141101,0.08078926569403375,-0.008030262613379914,-0.04865111523333038,-0.14151874495491473,0.0220012045842895,0.05127883217380255,-0.07640221191487476,0.02898544282106737,-0.11144009718062939,0.12339378318639295,0.00905136504083043,-0.038275811436435526,0.08453522398064738,-0.07387360354454953,-0.04510854159296496,0.092447220654178,0.025030415839640323,0.11927965999720454,-0.1496144435091752,0.17423829137365007,0.07049208889430762,-0.05567207464678939,-0.12591709496006062,0.0060641919784529255,-0.1349402685930823,-0.03854330048713531,-0.03913985824569222,0.013084677847198136,-0.02736259688403494,-0.0836319469318848,-0.05831212506003411,0.06854789461206302,0.253852223389526,0.1294181528937008,0.100104319143632,0.030854376731567133,-0.2757339875298417,-0.16174632258953323,0.08983317512832872,-0.03290434718065273,0.0165502377081415,0.07741322092797473,0.16564406245854374,0.06911065362605222,0.0013392500298731853,-0.010109191599317086,0.04137053359044351,0.003109491329390335,0.02448090451523464,0.12398681967314325,0.11905126996290878,-0.03499804220577674,-0.13972220696372006,-0.11961328400474858,-0.3260161341101041,0.042581286826721056,0.00345594304198175,-0.15365243082395794,-0.031524905750322726,0.2447238144452963,0.19086292359648685,-0.09248824457907615,-0.13719122884933674,-0.20819183096191507,-0.05618968826900814,0.09195230044177816,0.11345952509310246,0.0913329083771668,-0.1772818452818152,0.10442352487895545,-0.14421183861352493,0.0010325247359341502,-0.03883561826464978,0.12889150512455846,-0.021945876237138156,0.05024195982472679,-0.04281763764299327,-0.02151836827033599,-0.09098875690116176,0.11908313651444005,0.14447271924137034,-0.016052445963845394,-0.27539179418933,-0.18884940939402214,-0.007488903855849082,0.21354337753592367,-0.14518412628722946,0.20256174816032402,0.12668223110974855,0.02271988466660175,0.06992951568795139,0.04546856669337999,-0.13492292724950516,-0.4687354696458586,-0.12231843422532435,-0.06079195829544438,-0.2430138176244728,-0.06947238289848502,0.002430211998376917,0.15604947965270277,0.04914872853511705,0.03845265501052789,0.11814837795700249,-0.09396952868663551,0.1126925139201928,-0.1753238369815346,-0.05364380484019702,0.14098269169258418,0.07176068480196972,-0.033859600428554446,0.007928171849002495,0.25456115089190806,0.14871767097343241,0.045685155637960766,0.09569964566807745,0.17677825259181829,-0.09088043179777762,-0.008416333331110653,-0.10264902258773705,0.023903995802866305,0.11742592398325383,-0.05657239255265149,-0.17572637865945878,-0.17573381567884278,0.05246759144126869,-0.027246105690853794,-0.02620112691694385,0.17496915440017524,0.08023894314864405,-0.05860156890645131,-0.051834493725761654,-0.08930456804437015,-0.021134899082633624,-0.015305448579393921,0.10721071942719118,-0.210023399017863,0.062054081668496734,0.031019972915722668,0.03804562675649113,0.12588940166774062,-0.044374628391400044,-0.09743203626305867,0.02644337034149351,-0.01570451467981438,0.03742059818913303,0.09373244667482793,0.1686840774308324,0.005896859724875806,0.0063105653816545905,-0.06402421651200679,0.19298470522236655,0.0015889156725334243,-0.021500541432395694,-0.010716582737256257,-0.06084626489317425,-0.0734102953527537,0.1576621411996743,-0.00023672018931832314,-0.10060017691229264,0.24366737712754152,-0.04985082084843043,0.044354459475623546,0.04933412013904989,-0.08255746966180244,-0.12566266358665734,-0.00033551849480756047,-0.13032446969525954,0.0470571647090019,-0.0031874463753059604,0.08407009124512616,0.14315193294362022,0.05403265397827272,-0.015244116407577434,0.07911440435942804,0.005216051886781343,0.12550282499641563,0.025096890981423623,-0.1473334171459924,0.07305361389085391,0.1510441912638629,-0.0008478196458981973,-0.005096483039657162,-0.19794625331624602,-0.031014194034570584,0.07641107351185196,-0.22814470653926344,-0.10275207285142235,-0.06417411240828519,0.052029668330349825,0.16587571816128738,-0.022028436356790155,0.12107490597409759,-0.05317685422932123,-0.06429434605656148,-0.19961407110530055,0.13701734490280218,-0.012159340043309246,-0.07214838511521295,-0.100669581399103,0.04568011239744709,-0.030293207882522245,-0.136059664850111,0.0025528044651347203,0.004215847685222818,-0.09731510394018875,0.008815601782843302,0.028319712239077664,-0.02971082814151086,0.08699195392137718,0.05172101879299616,0.22923841704012998,-0.02687004373548869,-0.05043291571473237,-0.005618039323629714,0.06221859394851308,-0.09295641203074083,0.08770905759467836,-0.01765892863286757,0.07241154098426196,-0.05360793095371119,0.22082746940546977,-0.10025638908851742,0.05688339972671218,0.22356801191013728,0.017305054017112114,0.07235151849435077,0.10585702876688687,0.10419130021528154,-0.05634892940198048,0.024436703324750876,0.12087733668192259,-0.055574933082690396,0.00730505361987853,-0.09419144848184538,0.24023629670927862,0.059280800617430636,0.10134102262612595,-0.1844560375803208,-0.2197934817261375,-0.08987821249943201,0.09651511811720996,-0.20373572021977526,0.15457509144262274,0.09239052318565515,-0.01945475109517792,0.0366350813932142,-0.036194199917023426,0.08537897835281356,-0.07359573372534561,-0.023963967278477265,-0.11611740216002496,0.07288842362129251,-0.001584056056878193,-0.16760523408690567,-0.20319999024336197,0.29379425250299895,-0.17477454489160035,0.046243652123079564,0.16661650693467847,0.028083152177408387,0.03257880127877566,0.09224361886973491,-0.10703713574890733,0.07419508276013223,0.029357691395247566,-0.12925600274173837,0.009177075950715619,0.03317930090485688,0.037180491429281176,-0.2529975756766631,-0.02068766334754416,-0.014834696279673367,0.09131052676857235,0.010257276730615364,0.09803217525881609,-0.1079816343008372,0.19985854470833775,0.1372907415027037,-0.20243260903543062,-0.026776029763507576,0.11180815391793192,0.08287488809337029,-0.07881825753731941,0.0029929437188215176,-0.07432817700159085,-0.09675559679812915,-0.03506683577933078,-0.05716187075484006,-0.06308187732702919,0.0290093787190319,0.037875410696514594,-0.00628641796050461,-0.16604591810468575,-0.11499016664719605,-0.0013976165409724042,-0.10150027947578893,-0.07456511579501235,0.012029083964270468,0.004430357303980212,-0.07945313383612874,0.0668701284932841,0.037441652214135264,-0.2018669802095939,-0.12534425994032972,-0.14644891445764033,0.04741633324885261,-0.07667392115493077,0.12935969335556888,-0.10385933635877145,0.08721801817869572,-0.07563200558857547,-0.04086100268450336,0.08860088372241282,-0.06787033915106573,0.10596333095951531,0.013915082371057142,0.05321889366264423,-0.16906220315583015,-0.024242911136120062,-0.04731935776409606,0.13496958197479067,0.2538280213734906,0.05035067066005765,-0.08828649583761504,0.07164385849778296,-0.03214162403247839,0.06970198743233359,-0.00014959294622383565,-0.002462615598766134,-0.10005060613437612,0.2001623253903816,0.06597591737788128,-0.0003959419421889671,-0.029796880040842563,-0.021793865954929013,-0.015965075397306166,0.02635655215961861,-0.03575230678374576,-0.13608500399706216,-0.020991047880592455,0.07420854353380041,-0.11794405186852905,-0.07192552968813647,0.019230314528800748,-0.004111787266494666,-0.11322197068116259,-0.14297053695258516,-0.03333166400964949,0.19805612137784273,0.04134429168127213,-0.10549943653867927,-0.04521953412740551,-0.10502992491158403,0.018843451984872632,-0.1736351947524835,0.00019379100547432655,-0.05815480784095013,-0.07979637479349476,-0.19118656869794518,0.024927599025515085,-0.012779721076652298,0.17390417325159432,0.0609409861596635,0.22308789579419225,-0.01217598884686605,0.03585789169396451,0.030158199747593657,0.08247685782768313,0.04415861066191147,0.17871841881736467,0.07019013253928869,0.1307646775021149,-0.04780625933696016,-0.07429274227027224,-0.18697292884906797,-0.11027507251831047,0.05533931237318655,0.07631189444554501,-0.028243987630042402,0.2500897370372551,0.16079025187518656,-0.09986284513348893,0.10409727780613205,-0.00892873782288972,0.08632705118429737,0.01301923653317087,-0.04629816206166579,-0.019083520887474,-0.019829867774972944,-0.10520343403467465,0.15615918581821706,-0.036320563932288066,-0.07235283817644582,0.06689425590700482,-0.09413055683402675,0.10103711359793856,-0.039799330597296366,-0.024891523732053066,-0.0739752499381884,0.01873278729457837,-0.11217375308759982,-0.018410877693311206,0.1519133140726988,-0.0819966893706183,-0.18317876857770793,-0.03519402189806237,-0.1672106282413503,-0.1101884406013424,0.06216639840594952,-0.034797855446807385,-0.07826210883808261,-0.04866936092620841,-0.0940204349474214,-0.08580613718013631,-0.023141710590839963,-0.011882159385519616,-0.17466280097913517,-0.09228255716014096,-0.2328764411153693,0.1214855922639062,-0.030820885073911786,-0.041594784603520125,-0.01235735187096039,-0.1766672376325675,0.027983719259478724,0.18353383063761233,-0.07968929966088023,-0.11646959225018763,-0.1000620383713117,-0.07095089246932497,-0.019296705197820424,-0.03229446333750515,-0.015577053628292401,0.18849443666689258,0.02270047976189653,-0.07156886971587445,0.09264461636309759,-0.11937810260475326,0.14261232323229178,0.0028746629884474034,-0.006187806169300029,-0.06434349790202909,0.020129354328464834,0.16090100817583697,0.02226808218285906,-0.015782626666642718,0.07307339881232665,-0.08830132388121203,0.2064259420030741,-0.07496982045471427,-0.06541230374990309,0.075610421842063,0.07690231556889678,-0.031249349292358748,-0.042789109101634255,0.08001356799280429,-0.02434489551971873,0.05076793573625612,-0.1363025727639803,0.2925840863952522,-0.07635355638509432,-0.04796333411418683,-0.020999821193848675,-0.012604091310063563,-0.09671558424147442,0.14763270071859724,-0.05711394499953162,-0.11303696020981908,-0.04755303989740628,-0.017651632018881123,-0.1279187296547117,-0.009095335988995897,0.0827913388760869,0.08709372399339216,0.021655062789645733,0.09484339687321015,-0.03279433279476038,0.04692769298567382,0.13965018121731562,0.13272644110293244,-0.055487225502060825,0.03975417785266318,0.04303374856034822,-0.1907474642582379,0.004832117321991434,-0.10961275694858603,-0.008346674836184311,-0.050712546530333594,0.133639965175291,-0.1623791504650115,-0.16958712544271595,-0.1833805024424205,-0.1492683555155756,-0.0717584353141866,-0.20406263660282822,-0.13653210563211568,-0.19052005948974285,0.06401412019978797,-0.06960195810191024,0.0180488844831082,0.03473166327231909,0.23037994325358302,-0.007224130416051265,-0.05155726996723733,0.1724180533152539,-0.1178453382659253,0.11660410044847117,0.0086737637560535,-0.2344459113251341,0.06223725376514465,0.09004697505648203,0.04070243269105355,-0.03907849076369996,0.05110431611000199,0.029889419938541058,0.24295471445796296,0.03506520479744512,0.09818629178219493,0.007129538060854048,-0.01470208141654124,-0.043545333718525155,0.2211339933564599,0.07780664790631435,0.09496381428977818,0.12528177475538066,-0.09413444437025545,0.08118090342324373,-0.008422215355828693,0.06376115022228421,0.011517044426153313,0.09118444047118758,-0.02366535190873731,0.027488605012827586,-0.0452937806754266,0.20677272278321554,-0.08723387303184055,-0.2061346528746854,0.04560414018254509,-0.0017536385357775478,-0.05804975232997686,0.15392658538087872,0.07655021607904698,-0.019042012952320716,-0.17574546733627872,0.22370252645213,0.04188871179632455,-0.08761091034776049,0.08705891337658554,0.05813636956503546,-0.021763172034672592,-0.03373283866856909,-0.10221827583920888,-0.013437921075455668,-0.09615044594937483,-0.01915907967514549,0.11347641469002503,0.023412830190536048,0.027221091224210493,-0.20625504758369584,0.05069032598610778,0.2697879474348415,-0.013221795641245137,-0.0747517737834206,-0.03894507644615547,-0.12550627900700018,0.27983012806736357,-0.12317571666455888,0.00026779265060024483,-0.011069118773660552,0.08040297761995127,0.08804147891534361,-0.021381046362453728,0.11078561434580353,-0.1083386004752247,0.17451337572877149,-0.11512086461688448,-0.03407502127195105,0.09449281687459118,0.018194654846280755,-0.10321619065145199,-0.07613385387085168,-0.15888042087866502,-0.013150157245186908,-0.06258948545260222,-0.05136962967653558,0.023954448457195663,-0.09554624708277559,-0.04998402787692012,0.03432743710533634,-0.04237775987117142,-0.0030310932484537154,0.1329524252651588,0.2219954533783156,-0.2344842715665154,0.08386960531461365,-0.1787770373708847,-0.1858091310851638,-0.06584157386400298,0.06546061997056007,0.05920395111092313,0.07381187322259386,0.0716381477894333,0.02725946880270121,-0.16267497471154996,0.105178366137086,-0.03736279788659972,-0.08692696607568264,-0.1482615992062467,-0.06448815783797172,-0.1610043258230996,-0.1205565513952103,0.04601157601217955,-0.01027442708232899,-0.037417321599659804,-0.012282066168375398,0.1626357693767103,0.02511702752260085,-0.06794211131541245,0.08280122482249844,-0.015772773995019827,-0.10242857069610373,-0.006335111811563141,-0.00886267691692974,0.09719733809660036,-0.05722590878609132,0.11605858107455574,-0.02824697700518587,0.03851064245519501,-0.03826940959632559,-0.12465200467581178,-0.10800226391727565,-0.09119601281324492,0.09367895636881138,0.0061101305972494635,0.10648654764719896,-0.12300080110944978,0.0643824355351133,-0.2397212703367215,-0.03602569631798939,0.06445979870822845,-0.02174499990545912,0.01871607078639749,0.029379473730956684,-0.07969355303330498,0.06296225802457443,-0.07166438101525038,0.1765031415064704,0.09136059517533138,0.08891779757247581,-0.08458874908868792,-0.02769543081343248,0.05444258447208514,0.22656221467089313,-0.228156833948883,-0.03223120310773412,-0.0878321140901617,0.07801322388281455,0.1390926180739181,-0.006578177709460819,0.03459273532342213,0.04431327074383173,-0.18939208755833561,0.022254021272602963,0.07844426212488738,0.09823824171325608,-0.0676690382981156,0.20203637244797834,-0.0826347921298883,0.11535573007900357,0.050822608862177016,-0.12141662726862114,-0.10904129795804555,0.14093819893304368,0.1805837628037096,-0.03593704058137417,-0.0949100418675817,0.09645806717002849,0.0654240484232943,0.1391654096595942,-0.1126119353925694,-0.053298595118582495,-0.08581816591493623,0.0926403500755631,0.09579564301919179,0.010974762360468746,-0.07749191255870128,0.15747968195889145,0.002666580681750916,0.027485394338409082,-0.03951550184839828,-0.12246400157135477,0.05587755688667969,-0.06873002940745776,-0.04544666220908027,-0.11810641396422629,-0.021139708993018234,-0.06170500383782803,-0.2815625434518989,0.031268871828012294,0.06684573268834522,-0.030381732999904584,0.05015137195223595,-0.09359763030244435,0.07208321839709737,0.03728147525224331,-0.09607053693599468,-0.18883337991702934,0.06295694738347785,0.05485287141985821,0.20487521529678457,0.09586601326161202,0.033602354578645535,-0.08907671791923225,-0.06333803750720235,0.06481952919685996,-0.009262634438724462,-0.23852882465594022,-0.046245023526700034,-0.08439410229178115,0.13111196762319277,0.1300400086303313,0.00976909030177734,-0.04919805048279983,0.1264499678907394,-0.0555379551188432,0.16263676568811494,-0.06175390477815889,0.2530296699491096,-0.1274544067655515,-0.04283218728393934,0.02599263801383775,-0.1456259726927014,0.12450674831357243,-0.10505333273843127,0.08160800524881431,-0.02002010466373332,0.2074092682772286,0.12306840540790905,0.02522850861978203,-0.0056387793984383995,-0.023725912427408246,-0.11618593169886415,-0.06238515541404056,-0.13572099118967335,-0.05875283942982153,-0.04696196632774126,-0.11339005979119435,-0.02841132359306614,-0.0077806364383103885,0.053843579970187835,0.08358936297840829,-0.06524992904063354,-0.08440922142373283,0.08167976694078855,0.03216720686018277,-0.09669111990621367,0.014321207136000347,-0.04448598576074774,-0.04707570460140464,-0.007996471723029318,0.032278062464598786,-0.12486871110638464,-0.021245565948062137,0.3019962809659467,0.1473693693706591,0.054213751122669934,-0.11110280745202981,-0.0034449648991042364,-0.11723284240593591,0.11700114478139831,0.05355817284635199,0.15547638871235928,-0.10145679899515857,-0.04254094170781054,-0.007102565900845016,-0.0328093503562055,0.13784494080653029,0.041746942817421015,0.10603793424064639,0.08053673930236845,-0.04069245870796057,-0.02540682910031186,0.039071553304031954,0.18593636042724654,-0.024974917125776073,-0.06112318498678155,0.15917799912160266,0.10591567356265592,-0.12771964339486816,0.2141534455676211,-0.038048038031712,-0.08896605254865847,0.09799623980594002,-0.0958490610334752,-0.10657472489685661,-0.11285350492109843,-0.12505292171061602,-0.1464882480501561,-0.072828161556888,-0.08296495660880113,0.0365828300154494,-0.1262415901511239,0.16581452846768086,-0.00450133117464309,-0.03644615335233013,-0.0394927056675581,0.07416652339310453,-0.10887355204332834,0.0071070617781644335,0.01268085248382718,0.05431626159344091,0.004354982266928536,-0.03842005457938998,0.01482817320894259,0.027710029729193605,-0.1257808547423385,0.011887804728149126,-0.04495332864979749,-0.0341417165454762,-0.07624222480721599,0.14837590375150095,0.2005325591109484,0.03351635341301572,-0.0669559095863329,0.019210828889484527,-0.05391907988166575,-0.04054430070458663,-0.15750676717337297,-0.028561435903125154,0.11944352021340746,-0.1289199223406828,0.18782546138474843,-0.004986562382712385,0.02100060393266176,-0.10619944406894764,-0.06819212962007523,-0.04509956162087621,-0.1413576923719579,-0.07163201525591473,-0.05393079456251891,0.08477365853311175,-0.13075365663337993,-0.019198773511918215,-0.013360479944896258,-0.11485674355776435,-0.0752558444165948,-0.024852812978737628,0.021245641688579727,0.016477970304086955,0.03976643037329428,-0.20638921948900496,0.023574960619774238,0.08949698056653056,0.18245126579217388,-0.0771587362586169,0.05260502495753857,-0.1252064013497876,-0.0039333590101830514,-0.05672816333844305,0.05007062739811511,0.024654099484588576,0.07354602696851119,0.01905602010942552,-0.09065725544456378,0.15664398699131823,-0.1771025235152693,0.054995420237436324,-0.032003776645211514,0.11988741034001958,-0.030257445264496464,0.001855687763707331,-0.008631686576899663,-0.03320126509216732,0.04764077292688532,0.09656088375176203,-0.0012759567840248329,0.07997490734566023,-0.03244167928112694,-0.0939142309187806,-0.00613127493596167,0.04500234535159614,-0.02538066912872468,-0.10222787471210927,0.12498105712705947,0.0528029731577579,-0.08787088422537737,0.18502103393149466,-0.1685129387453847,0.03936566791400912,-0.06397738282958455,0.1341483181471813,-0.0823245028736445,0.19758056915172142,-0.05172420182800073,0.044598611146596155,0.037241734877765484,-0.06128568826483258,0.07533243496094372,0.03509982108399229,-0.0645239906606911,-0.17363639972908138,-0.17334676016876227,-0.05385839954243582,0.012070089923969008,-0.039211821121674664,-0.1465023148349399,-0.011536917356325036,-0.011789180892964254,-0.1749136909236421,-0.21517309540273824,0.2173039664474665,-0.0663472031341283,-0.03492659859008603,-0.12081412269179793,-0.023095954960649343,0.15517221221217745,0.025153670338191613,-0.03190714217733703,0.08376649496752005,0.06336794449699483,0.023744102214543195,-0.016605476541882058,-0.10532037066136761,-0.09732852522862917,-0.16035068348886683,-0.00411887617361608,0.017345475625240418,-0.11809644916190017,0.06469935193610706,-0.17326995683253849,0.022335834203952337,-0.1666103920976038,-0.020211810913785603,-0.052465429946834084,0.0009943650787366815,0.03228569987596697,0.03298019642484985,0.011378583499304758,-0.08494859447877964,-0.009491587208290417,0.020922929567207874,0.04559926290926745,0.03238146396717026,-0.09140952617813979,0.06360232027141782,0.11142288022601174,-0.0009325371571635218,0.07214108923960105,0.006383381179656534,0.00546810023789591,-0.18248675492778363,0.058588233366786265,-0.37292375809916317,0.11683891999688346,0.15721535859466762,0.152150710281945,0.06088778839576162,-0.03119953026150596,0.09505206989385248,-0.011405242178905914,0.06973160044200642,-0.014521891639110352,-0.03738440538851527,0.004957147026067384,-0.0746078647467808,-0.06062459808920683,-0.11164684714485693,0.0639173989793336,0.05315057340293477,0.008652822640149575,0.13872393042394962,0.04401346983470777,0.07341208735022621,0.034944189966101394,0.1817775374882009,-0.07098040154560756,0.06169909760638186,0.05280700213387125,0.03990285391070246,0.0827217390133018,-0.09989544282630847,0.0021798512876825505,-0.08806417728517368,-0.14511262974411263,0.11476891030072091,-0.06901494766898755,0.09927478905081544,0.026810064213019534,-0.07940602502386791,-0.02686213132376571,-0.005498681409043824,-0.1415571504241443,-0.08232809108190711,0.15653510878154717,0.0020512908948753504,-0.06078079685963638,0.09356459435778657,-0.2211075782748067,0.0741702036970698,-0.2971097330857668,0.06224273638148078,-0.005675577384202277,-0.0170328562156329,0.1721260447898657,0.07509428266736294,0.09832849249230807,-0.005088755762645259,-0.011450836586077304,-0.1611314887475531,-0.18499297867179568,0.10023536922160167,0.11936894275559853,0.08899194532347447,-0.01148247211580429,-0.0021616169806880406,-0.042500461056288644,-0.014100828859539347,0.07060652078930425,-0.06000681055926244,0.019384400615802176,0.03053601591167261,0.04608753365180218,0.16698763826690147,-0.030905924540645818,-0.09700548352740794,-0.07087266597296618,0.14478185350889383,-0.0428630004339048,-0.21661421782928078,-0.23562950115354328,0.061845064181626046,0.1352440910175527,-0.06011052409147614,-0.0004700153519150602,-0.1646257124591897,0.01832171070209015,0.08660254413025807,0.09619833293900083,0.03961606604216752,-0.13066504855738795,-0.1677172824973256,0.0061809309834642626,0.04242398393118642,-0.021728356063102854,-0.17613682678963727,-0.07966422728092955,0.01811845516390707,-0.23311582189838598,0.045506434514842174,0.045932025232497765,0.06285801930480267,0.005526883359006686,0.13735017926183912,0.07252617867419986,0.2036462702622929,0.032634812014385554,0.08783525543646753,-0.22619388997086842,-0.012505252324818545,-0.03478747011165176,0.18376900417749048,0.07156478335584669,0.07141874732653491,0.004776105125555584,-0.01786925506871877,0.004074365363791168,0.10378630305229664,-0.1097955468700888,-0.04661055067896053,-0.2595315988780707,-0.125834541216638,-0.021322228934908673,-0.21284694926818232,-0.28176093403281893,0.13394372223027334,-0.14007740011365835,0.004221381617145318,0.12427722772023128,0.009989972512779884,-0.08442595654096162,0.12693455898877234,-0.11575708560414459,0.01725483130673397,-0.17022905809028496,0.14524274848909588,-0.03499070781205558,0.020523049181768213,0.024484571789379857,0.19486667328174223,-0.006092597181693717,-0.34229027646638005,0.060038574514620566,-0.12315854387708976,-0.00013267952244196037,0.09894328939096342,-0.024942679473174627,0.0260843252594574,-0.06533059759790837,0.007194668038107371,0.052052010381636336,0.08991564837974668,-0.08877936217910266,-0.03819562087973768,-0.026272527371556137,0.04812612865954195,0.03926862757301033,-0.007848876415377645,-0.07039171782038557,0.07772020477350187,-0.10456433462828632,0.13384357557473803,0.21112688664159934,0.042258772275475594,0.005192342313825513,0.08501113118399754,-0.08239475449765496,-0.0342448070193566,-0.2114115419851154,0.2661265787524502,0.12254019291726925,-0.06086245695971522,0.0025909441858534363,-0.22816700993228647,0.2395569680558913,-0.03142030491464464,0.17159351016378616,-0.14122157379331066,-0.04328621056296355,-0.0921235381449208,-0.08805728578083984,-0.08724509709353413,-0.14595897393398696,0.09957387464834982,-0.10239675270895018,-0.05726433557058165,0.05217119406091322,-0.011706705660401556,-0.24904337614671732,-0.16695061708205272,-0.1258884457802552,-0.141991606089161,0.08613941140335726,0.022691881584873497,0.05364909123658505,0.05139004833740853,0.23294083902028298,0.11232742321471174,0.07314818492482086,0.004096759511811447,-0.15704728720202332,-0.060814492415949765,-0.2202462610740098,0.00717362624539274,-0.03922167480040022,-0.07157576462304364,-0.1619850081747708,-0.04666429890548328,-0.07188408977520644,0.18411545608224536,-0.12891696192806373,0.03549099304266768,0.1739531467582338,0.217190779446373,0.14687833331917619,-0.09364951147441944,-0.2088736721634027,-0.09618599201188488,-0.03424351421730832,-0.32876152395298375,-0.16441990666639805,-0.00374255998127613,-0.008689708529613949,-0.004943619329588575,0.075985643886097,-0.26726696120079163,-0.14400960258236134,0.09470586295717281,0.05265536685818475,0.07205522015434328,0.21402820595325855,0.10487422601764071,-0.16526957058197878,-0.06211246884531175,0.028627090988905587,-0.10653670389608093,0.1138512113728317,0.35308892491151184,-0.08999524880481437,-0.10841057701449597,0.3758382702267439,-0.055333742260011656,-0.01843779893374762,-0.30912535149385956,-0.1471769103744893,-0.19237245944039438,-0.15760641007050463,-0.05150904968467332,-0.03734828469761064,-0.022715473756760224,-0.0976563458276208,0.1162165737542369,-0.09340537566138676,0.035493525723305046,-0.069171340186876,0.12505539788626382,0.09020696130444637,-0.0776821179815751,0.05495313345584093,-0.09539375197645862,0.005102345857285474,-0.1576761831254951,-0.061197972523798334,-0.024023008516143377,-0.17138542679337293,-0.12849208928492034,-0.003536280108869787,0.004397071613549246,0.09496412481494443,0.08333025916369986,-0.04394451716620802,-0.007379100969126488,-0.07203446601048571,-0.09881568459651222,0.1108869107345401,-0.008137316078003859,-0.22348337107336014,0.004031680160635822,0.1260568115574631,0.0016565344964953495,0.24779055742136027,0.0653954689861943,0.07628761846089205,-0.040787605744800164,0.024108724577113973,0.011870553142806045,-0.02324752762972324,-0.14416936683880519,0.06747683442379772,0.005424819923810428,-0.08340324601701765,0.04558595268392902,0.127637195581645,0.03392328788511974,0.040034935309912215,0.12804371368770087,0.1879402788849294,-0.011414804030176246,-0.15087001997712873,0.11117548157404752,0.13177852018237723,0.06469286848959901,-0.12285307047741513,0.05374281966688664,-0.15524330089391328,-0.10622191537506011,0.009775671048671558,-0.005856799794830607,0.07861156533392295,-0.18539307959904935,-0.05859358918579561,0.17672191547832705,-0.08558612792593515,0.1525636048558643,0.10133462313902558,0.12160539558897464,0.10774837623461818,0.1460285725024969,-0.1371344450840095,0.14300685212155642,0.04480079329712983,0.14045935474244137,-0.10800022231963449,-0.026440516152153187,-0.07982992407449196,0.005082765842712631,-0.05131820847154982,-0.03915260701835258,-0.14192900805867872,-0.17097420233961363,0.03175586774394404,-0.13654014431248693,-0.12098415777248746,-0.009280623162783231,0.07096187698204075,0.0033356017356471375,-0.16680931216775133,-0.10869924393932986,-0.04880756765873383,-0.09428073221383643,0.07819462024979008,0.08642956883970637,0.02304418626151823,-0.060089363077918435,0.2005099448307022,0.11404405694428044,-0.12351728083951409,-0.032668469905587715,0.06497415039652113,-0.11380960992968087,-0.1193579130092577,0.004265805234667406,0.005698164741871697,0.01240918633765187,0.009595449708800418,-0.14568940000561603,0.058411271539864855,-0.09341984880126225,-0.036623301853391195,-0.043216802757460954,0.02930817566173756,-0.04123755032466645,0.012419641182304493,0.10365957700971792,-0.11862552308059274,-0.033222214255999326,-0.11656150650660557,-0.041141017549038955,0.05240327228173451,0.03704896658363857,-0.06413787175741,-0.06016996347491203,0.0014214346976881374,0.11059942739432257,-0.08778321279161702,-0.05229228106238584,0.01047413775370944,0.10436804135469929,-0.15402569613508377,0.06160442753759311,0.162710246933498,-0.06462484938259043,-0.017968865822889507,0.07413353162830796,0.3119818290950955,0.08893948343341976,-0.005422451107989736,-0.05952692772242294,-0.2868437629314683,0.2513573973349373,0.2746999725118858,-0.03696012473118662,-0.18582548769361393,-0.06067253318261635,-0.2141614218793846,-0.20663395882365962,-0.10025934650385118,-0.01620068172164653,0.03724374703621411,-0.09071944419162917,-0.03590201843414887,0.06462036952389737,0.021868688017500505,-0.02574384473246168,0.10471856677466411,0.1427927636846973,0.043643329779309153,-0.11931028083864521,-0.12381766541296618,-0.03221416764109194,-0.03478714638189663,0.1697278812301142,0.06230463481314973,-0.0008254588192779553,0.12448648744043699,0.011563325489407302,-0.0035748546264166787,-0.12930023053701403,0.005783235333447832,-0.11816307055938806,-0.08932523525340526,-0.034266150053516506,-0.1398854903059074,0.05097774967762588,0.21988657825738223,-0.06918993486927731,-0.0069411228861990535,-0.024524775559649357,-0.1338202129018055,0.053086925518428175,0.008355870292043863,0.15620675353598504,-0.04293442843997989,0.02664989096276674,-0.10752492656880261,0.10798805032149883,0.06127858830750633,0.10717541171176093,-0.0014786267337816837,0.03979927593589805,0.24117814885615782,0.016731196642750617,-0.018111975731701885,-0.003384301347796588,-0.004149692970404584,0.23512505803872655,0.11601970192681207,0.09509758482404733,-0.04936296626793531,0.23124756909665378,0.2737297227531488,-0.12859532752719185,0.05294654037452804,0.14343093441244054,0.13558751932151689,-0.05821793167205853,-0.08596063631417779,0.08448073428013687,0.05763083636882038,0.2427676696593825,-0.06137946063760997,0.2175088664501432,-0.15661576404467403,-0.04075162186399262,-0.11615929972867726,0.06224663212459109,0.05191181261289436,0.18453258931692068,-0.040734450881061604,-0.04806586091989128,-0.0913798423051895,0.22048275211992066,0.021692941019367352,-0.016921621152265722,-0.14826295256021685,-0.0908272372382761,-0.01663226438840624,0.002599745789843027,0.10051362399934648,-0.005098336686858479,-0.1124523611245154,0.007241122305407466,0.11734188227701885,-0.07359581187121071,-0.0975958754021644,0.10040646530586791,0.1177595776782824,-0.10228584668026668,-0.13366643746174284,0.04683622938557261,0.0605440369706639,0.06167445965194511,-0.021244788550331482,-0.06592698184869075,-0.07631090804525228,0.10938832426183416,-0.0359667844453769,0.13878675234162113,0.28434901710360394,-0.16295204529592947,0.005326638309410533,-0.13431600208900998,0.06999924684302526,0.09363037626759707,0.02494379903220715,0.05542559326017066,0.04728702006157681,0.22452379409684517,-0.0557393978357091,-0.1263588506093943,-0.11063940036675385,-0.08925203700547897,0.09814676764012852,0.06304192393190816,-0.04524439882496895,0.08334422496546767,0.0902864986179394,-0.1532767925032016,0.07118875093514358,-0.06755674516723234,0.1418035144374065,-0.1053244742332597,-0.014107588035806877,-0.2597453349921841,-0.17864943641824496,-0.09418693843001852,0.14268647605483234,-0.20883967994419156,0.09105257512172853,-0.12128819325498927,-0.027259545357644566,0.12355977259098397,-0.10719557310598427,0.04895770507677916,0.034393958514366524,0.028473610020286318,-0.04488198991703432,0.11683190523826047,0.20879981039048176,0.22423895590205398,-0.024025766845801412,0.1053243934359414,-0.10227841566240833,-0.05411533321201335,-0.11584805834175502,0.142041621272133,0.12391969777438121,0.20497383749264209,-0.13854096908564606,0.1449893502710615,0.056710313041751635,-0.031312595572050295,-0.0452879876303548,-0.03241064491368116,-0.15450201188172555,0.1095484688814822,0.005339187653489709,0.01728687249297003,0.08853337369678332,-0.10255161110441591,-0.19234723439023266,-0.2031343445037784,0.025223630687499634,-0.022367372544832714,0.08733728392102322,0.20435629637003513,0.07212817213054025,0.12596245642874165,0.07789461341131552,0.0703625824067823,-0.06206039298157276,0.10898756551414163,0.08302409634277992,0.39218036623380254,0.1883653293558909,-0.1504385533912765,-0.0646395456747715,-0.018788738295831716,-0.09714853381131011,-0.12828300187320227,-0.10160776445526949,-0.11328817159782632,-0.16821973322387268,-0.13926913531412352,0.15177148341543992,0.02436005338080424,-0.22969876737450726,-0.2773294748442075,-0.23767440238737694,-0.03997657138554594,-0.022933724754426912,0.09095609783949285,0.05343308558819682,0.1039730567004994,0.15309162710820426,-0.10244090482977002,-0.06720887783458868,-0.0019341495694062182,-0.22595353177620878,0.0805314190129429,-0.06164082086298781,0.08216591469139739,0.1612007361449431,-0.15653076326135987,-0.2643936720516475,-0.09811022049255842,0.16408269465078038,-0.0473064701329857,-0.12409705241604314,-0.03985237448525531,-0.007566711810861059,0.06637650609276159,0.09048682077735659,-0.0044005282923955105,-0.0623373040977462,0.0932936399920317,0.06638584095796747,-0.0394351103225277,-0.06781634859562202,-0.07784279458812397,-0.12209835769077819,0.14739141721915983,-0.031076625608232513,0.0723898723879059,0.13187481922489874,0.15218675619016325,0.19375698178205408,-0.03479911797727467,0.037642114339685125,0.08305645142317027,0.10913831364963887,-0.0904526052730352,0.1134686337447604,-0.04279697399021733,0.03682932830312047,-0.048882492439148745,0.25629208047020813,0.015444525297131037,-0.03412853221157604,-0.06798219979751512,0.003963904437564579,-0.1053251307426558,0.05033929568978752,-0.12803744258291,-0.14883860909335206,-0.08186734434046883,-0.0442750662366478,-0.16857842280031485,0.009377619534501383,-0.09944429116448536,-0.00741461641841016,0.04274883806363593,0.1613675079274465,0.04851218689920844,0.040969109101522676,-0.1115713990598288,0.07422744440205438,-0.22357871185022998,0.07776765372052141,-0.062025585120843,0.09826882763688764,0.14007712028231165,-0.23134029053011457,0.07598390081691479,0.02957029357701882,-0.012104347712386304,-0.3166565755331252,-0.12692413579280037,0.11310519793328551,-0.07660092278962548,-0.012058612288310759,-0.1398885013997393,-0.14759572591828762,-0.10095906407597936,-0.16421156728842248,-0.09470268539554015,0.22607543440164432,-0.0387961277834781,0.0848197356911002,0.05896646600018128,-0.08073683693133664,0.05068807029715421,-0.0267840173236988,-0.11941415745120271,0.09677366439132544,-0.02858203261019101,0.13929615726017533,-0.1626200620742939,-0.15075007317848838,-0.21461693135846718,0.12474929678976061,-0.02339170894486518,-0.05143181653545398,0.14001677801876736,0.16517376252147326,0.07192461503220708,-0.21563750843261606,-0.026230725564791897,-0.11841993560610445,-0.12549735299915274,0.0013514756254094451,0.09760130543120048,-0.022770351658380622,-0.12805019337128185,0.014863174744541012,-0.13447005005341056,-0.18626024918959114,0.11363365124957177,0.04403454442080312,-0.2869949123535608,0.06535166598060432,0.2972337872386602,-0.15131610895713463,0.017168611868557178,-0.17936032508597008,0.03509657233117891,-0.11167905741647531,0.05907840546261674,-0.043749531903834564,-0.14122688423120075,0.06069150028325608,0.1385198243028238,0.12055965679841889,-0.03069636949764273,-0.016647398592844996,0.00723067691843459,-0.14533513663306516,0.08663205045139666,0.2781176244126661,0.09623625111362327,-0.09563601952476823,-0.019458585884385614,0.026832699744216384,-0.21036447484855567,-0.07697440850154391,-0.0634325889588592,-0.28638208714707086,-0.06677252019945468,-0.037100740443714704,-0.10190254781988987,-0.023089405769974435,0.09921461171008637,-0.24123495190672536,-0.05238110539295473,0.1584253727159841,0.22882960714377476,-0.012370276662391612,-0.19062712338658297,-0.13165198384131585,-0.07585014503383324,0.018975495237582362,-0.051517120652324555,-0.22137407368986145,0.05048236356674457,0.24795762273887922,-0.1442742424841899,-0.07274682436956065,0.021463664662374767,0.05065817324496153,-0.03739340214242726,-0.1260323381066608,0.006358477414156539,0.016039960837681045,0.14036396336737123,0.12052925259141817,-0.06290473045664871,0.07563386364145096,0.04430387718351838,0.11068811648896351,0.19647642120894457,-0.08512001411708202,-0.11665643662232689,-0.2634546391960032,0.21015517446076853,-0.021083010571660576,0.05144916170024049,-0.014634037427901347,0.0045143927094924985,0.08390102904086598,0.01586590444133044,0.0928761616294354,0.003536614878684815,0.1038810046896329,0.033679047047655515,0.02018694349770927,0.15239819938196644,-0.10762235183814965,0.015549618141300162,-0.02443971672434624,-0.1096086316156158,-0.061811445090583714,-0.01045005877225782,0.000802343865920216,0.10714749096355118,-0.09485209640551874,-0.020219975044905105,0.08927787006832996,0.011739209659240414,0.023466621349924888,0.0005362773565384544,0.09628621908623476,-0.1506544752686596,-0.20118347943968504,-0.035682032304489436,-0.14897488321885177,0.056649677291546824,-0.04470479313282074,-0.011167225534280503,0.012309069063775921,0.03540761946187739,-0.14368940878757253,0.021112555371083957,0.03732567432898085,-0.017867285816897456,-0.13529490356909568,-0.12128548182732309,-0.08181929840586169,0.07750837308581271,0.06910796926703074,0.042290488908753095,-0.14121259119191784,0.08054521936012057,-0.057530736513515576,-0.003238574085629075,-0.09272369858412692,-0.10716364431210558,-0.039878457647036576,0.10485291595027456,0.3321655203435759,0.11459539288623043,0.029919714131500345,-0.258791582271559,-0.04611568792632288,-0.16806420800467448,0.10407766329444408,0.03258352326925213,-0.2236391260646888,-0.025210729956112652,-0.2728640550598126,0.07971938030952719,-0.023704914680465,-0.08435572801914472,-0.06711366361659549,0.12244039415158989,0.0396142586253947,-0.17441097007687656,0.057365363870404244,0.15819739814347591,0.01698932214669357,0.042187821604358154,-0.07507261221912652,-0.17525479711474862,-0.13485987967567545,0.06667756403961207,0.06104764862952772,0.22849856894602089,0.05643904687564124,-0.012465939245281518,-0.10892540439418917,-0.1826416802957259,-0.0917479514633351,-0.03806089021694948,0.04817797137103902,0.027463045408474593,-0.10260444428731101,0.04451052880001113,-0.15001411019657834,-0.05049644250235699,0.12137474503583717,0.021791901425897695,0.13139162024997303,-0.08869933269047091,0.04256069574240152,-0.03953749740278021,0.09655808121692266,0.1892967224683309,-0.036727947606380464,-0.05927005671644309,0.05650606058693322,0.044513318900701204,-0.09919103643288645,-0.06673991404553484,0.10132022612801393,-0.03850023945749585,0.12542853922939054,0.1309065050900246,0.24597184261610916,-0.03589894605865541,-0.12545026276798227,-0.1200910213070679,-0.012002637383558255,0.07344747466045236,-0.12965795256520418,-0.06742104797136991,-0.2759627957815628,-0.0067138373247825475,-0.07683518054062465,-0.18254504084987985,0.107000425909218,-0.15053015110958748,-0.04676448223485225,0.11613073300978644,0.19726406099287488,-0.07430046814176486,-0.11557899214683506,0.10295809403117866,-0.1081883885776966,0.057967774900994085,-0.025675660845308743,0.10874133433113096,0.056731541538330946,0.016799684970480885,0.09905666186974817,-0.008972583481507087,0.018959148597438327,0.03198577847153844,-0.3509007596016384,-0.10140863533749023,-0.053367385185659554,0.11186810211462815,0.02515803060680514,-0.08195781514392537,0.03163991907544838,-0.010341440919423859,0.11310911016651651,0.002821573724869744,-0.01995119682038531,-0.09703547883611396,0.14097706662399317,-0.15147618624452913,0.012352735383781496,-0.05249076944402648,-0.01467737297413602,-0.04474231349991087,0.07217027766887377,0.045166439576070416,0.019952954622960702,-0.1250003678438062,-0.08199735746622179,0.19651990557414556,0.2342216042693171,0.06707825096070405,0.025597358176650587,-0.0567902901765346,0.017703612164719676,0.06598162431606286,-0.05322766092332387,-0.125360975769651,0.08445126780027279,0.1845984895229455,-0.1103715676537262,-0.11605328320501526,-0.09269731292821422,0.06262616710016973,-0.015833258937794168,-0.019055481676377672,-0.07356278800655792,-0.01795593188829863,-0.12291156184018227,0.12165180248751625,-0.12753969339393964,-0.03498614718099805,0.01660504744698193,-0.08159856988364626,-0.12949867791463995,-0.13547529202118713,0.26741467435491195,-0.03852376041702532,0.008552416206368213,-0.01128285576175518,-0.07665541924148879,-0.15729546845618925,-0.17762176729678658,0.13720620248744883,-0.113886668953041,0.06326847844439902,0.03040046519767376,0.0026698544626056857,-0.2382056008592999,0.007663464657307334,-0.25862761722474503,-0.029646623477396113,-0.3402836471834529,0.04117843352480391,0.006882212400636173,-0.23417626568832078,0.05725816159603568,0.10365986139381723,-0.031180341313962648,0.0575640046605178,0.22576840563771797,-0.0010348392698391281,-0.0028765374266560284,0.10827269446221188,-0.1567984360629124,-0.024951677121651056,0.17752515297880922,0.18569152315806878,0.11217573290094447,0.14258168864950618,-0.0333391491125695,0.000887426950181003,-0.089204888351069,0.10655392100463305,0.01203211033149386,0.10663862579625673,-0.09982564066268422,0.02587830422110327,0.04418015716035162,-0.018005176927547984,0.10147484578576453,0.07475249680226093,0.09865480682593122,-0.06118870602749683,-0.1023083385555682,-0.21622624135739205,-0.08203430246359548,-0.11736659281100359,-0.06985050903502915,-0.10612246882086385,-0.09129847232261963,-0.15311939995936252,-0.1370943991151217,-0.21178358943739903,-0.06274942201146519,-0.13743951076200417,0.04329570055004755,-0.09666117860195902,-0.12442005275584828,-0.056213093089004025,0.12789433335375788,0.08863284225611232,-0.0007791449787423385,-0.04501648445684633,-0.05073278646174233,0.1519995362113667,-0.20034589536797814,0.1852407079948972,-0.005199557816620494,-0.12879286191363137,0.05527527774936642,-0.08201463759069985,-0.01197026388531713,0.17674537775499288,0.009809498418563954,0.04042936523192323,-0.16098072200277538,-0.14019014299742055,-0.28822469052036087,0.11905984464683052,0.035320575389695574,-0.057938210765093895,-0.007869771588304084,-0.05219941877626112,-0.2331812144254428,-0.047448561374520797,-0.07900732781459806,-0.24142667100349902,-0.08505966807709041,0.1525099518454692,-0.08481284733540326,0.008427770629403612,0.008328736020219196,-0.026126887784142915,0.18942166380742745,0.08782094625359302,0.10261878888548233,0.06832575756570834,-0.017956353562452936,-0.09937473753148869,0.19646835840369964,-0.14887968352808864,-0.19467381094903907,-0.1339245133603033,-0.059144900624863175,0.003139741544302561,0.1574770542419201,0.1469660357283322,-0.1310561553646964,0.13922026707282167,0.0034924772983765877,-0.1594937769774542,-0.028152647155406746,-0.04376921344392636,-0.021177512780292354,0.0072614000750992275,0.0016376665064565818,0.13237771848228677,0.037471693327974266,-0.015639511627520697,-0.08118498681355353,-0.03418103491551066,0.12363714104745079,0.025340599630828426,0.05874257813820058,0.02571101003737416,0.10887397782794936,-0.0404430575222457,0.029973240556547476,0.04634988355064731,-0.05098780030762921,-0.15263365323651296,0.022417283668221412,0.011235783898570308,0.00853579431034676,-0.04645977806382458,-0.1663208344424696,-0.009213546141427808,0.07529334083437739,-0.04116224474528608,-0.05436637527404502,0.06912449906343049,0.04609224628961341,-0.09279142751923897,0.16401623842787874,-0.0882212025211212,-0.06598719683021996,0.07394112930768604,-0.01913496100047441,0.15489539849759268,-0.1772536673539611,-0.12598171163997365,0.08025040895855697,0.043573303942079714,-0.06328813729120529,-0.12573681647297658,-0.07531117756046603,-0.01660480955335981,-0.34026690665167825,-0.04025322011313176,0.049986665747879855,-0.04841550011250427,0.017315354317840738,0.009010744116076152,-0.06070325235148908,-0.03373864377935194,-0.2286622166044858,0.1776016098758748,-0.06065625894999726,-0.029045607223271087,-0.16298825272972567,0.11042641980606677,-0.027203764427996876,0.22356309244746095,0.013470290451295497,-0.01373676802535615,-0.015062625013352808,-0.03197790346347708,-0.06128185439615586,0.10787126388696798,0.102793219234513,0.15028099389303923,0.05512926913764229,0.06180319617141969,0.04543649827292573,-0.1093720703785805,-0.06030210664290852,-0.051953569634843204,-0.05455586458674206,0.025114055511420916,0.058359663287911145,0.06952516787762633,0.2855710323701955,-0.10169779393571955,-0.14746506252970173,-0.045240493660495124,-0.050921840584393384,-0.07950049645163583,-0.0012822715986615725,0.49033034181582524,0.06224615011608281,-0.1537133242097388,0.07514613183940054,0.012381322236460981,-0.17325486054350428,0.012872658759929382,-0.12917598967858945,0.37094881138763985,0.2614148456166663,0.02405935088402098,-0.11983133563439768,0.30706066359363055,0.007574466356122205,0.09918346906866489,-0.06305684502046956,0.25192311041519844,0.022984917752428054,0.1695262445440981,-0.023365009469172096,0.1971380126217956,0.024785843834776316,0.07571666951320907,-0.013932347950005362,0.20622460754212735,0.15182015148703593,0.0508613319020132,-0.06288116889940808,-0.04469375627654403,-0.022014994652039144,0.0036497176699628498,-0.08431858285886293,0.01866142140561476,-0.0583490024850268,-0.03890548796562681,-0.13535743775793752,0.06170753869507012,0.09572457832282713,-0.1361772006877448,0.13138647989911853,0.06775779370058109,0.04773586004154549,0.05542106465068156,0.016038609952210046,0.3357801910116179,0.207561185252127,-0.012087226636523722,-0.03310158019441841,0.07723835011407096,-0.031246613168130197,-0.0025887556178103783,-0.07781103967924057,-0.06603730342316283,0.04456851776544268,-0.04808414799372938,-0.053573035139072286,0.020851981438809356,0.2616382056271005,-0.008827267731863325,0.006264321037416535,0.10134755025534298,-0.09005874753600282,0.06206923050979896,0.14898897420923152,-0.026932149834279013,0.043094484848608644,0.016845603516715612,-0.0641073413659499,0.0428702016614857,0.16131867973292136,0.10069212366096071,-0.09469126174137864,0.18008535783309576,0.055101923781433235,0.050102297122727596,-0.19964791814380442,0.03366587081677536,0.08910846824392271,0.16608204347911049,0.06499312907315367,-0.2293822381973518,0.12025544830543855,-0.005724407152142893,0.10826436153322773,0.016249141161140533,0.15295137478808501,0.22054524350645202,-0.04477955737172538,0.07179942483143287,-0.15635684835198305,-0.10655616658750684,0.011453786911907031,-0.04875232321276639,0.33308893135891887,0.024438414672951405,0.03824045868834854,0.14078610977460856,0.1371122825620514,0.014019123624213987,0.07162064459827135,-0.2797775483826665,-0.27622491990372533,0.0758738695689138,0.09451808891540539,-0.06003774310895367,0.05224824892724338,-0.04531447699205209,0.006926437646085893,0.16141813995583293,-0.08610226347446252,0.10416819328547092,0.020474255063338893,-0.10034195697580543,-0.10753734914641071,0.11617033352309541,0.07833106844310425,0.07619838790648686,0.0038007412735799706,-0.04483860606988586,-0.12329640286944799,0.06847682921450327,0.15897414747955593,0.11761451219550798,-0.0377834856332293,0.11773065308179946,0.0011167833623161349,0.027759993972138852,0.208167015542758,-0.01200808798447854,-0.012530373779728828,0.05775788470362287,-0.05655836778801756,0.09100905208553695,0.0934653551548505,0.23229903645031091,0.006239591365049196,0.009325949164809135,-0.0076896235083307824,-0.12579773401601707,-0.007572975671114019,0.030702614115353372,0.046624715678115915,0.07757586562494481,-0.015076135978176083,-0.006010347024050665,0.01291953943251565,-0.0598271904430205,0.014355142705098928,-0.15392440514407632,-0.06172842676841305,0.09598082646320033,0.029668937424086866,0.0051282276247195295,-0.11233531008101814,0.2532196291882389,-0.014822767093177583,0.1048666209166139,0.044795806880896544,0.10715325174547277,0.1249440356171066,0.08348275855687758,0.16653863547611283,0.09972548873406262,0.08372808178038803,-0.022018289041226612,0.06966128250226959,-0.05122430750315126,-0.23892731376078166,0.33979237077578894,0.14859048393671018,-0.11966409561431007,-0.02408361751633526,-0.03395000683966484,-0.056018986328308304,0.0995743268128382,-0.06509604926094466,0.3361402826314096,-0.03698433469790487,0.019998519701382597,-0.04620234826596038,-0.01599464750624013,-0.1418046521442925,-0.10526287134290471,0.13037306217813974,0.009249457343503378,0.2095658364690188,0.11099444436929369,-0.1313936840623328,-0.08413257778704578,-0.08617869836360416,-0.12209921583060113,0.15980095591035798,-0.10573089928467837,-0.02766255320588495,-0.11984271907939355,0.09387810015252075,0.10849164580268211,-0.00035677870493629334,-0.041100156588367104,0.04515646658026767,0.003655931232984792,-0.08842305725256887,-0.028658934282444946,0.044364527734912146,-0.11353910705725137,0.2417493729739136,0.013652878150015688,-0.12146868946119539,0.01629289721193382,-0.17865684682675678,-0.015412942390861214,0.06268897747353405,-0.08440501918794104,0.025904416604736094,0.050232071890660056,0.037740473380716774,-0.07776262249589196,-0.03272503586768843,-0.0681119100278892,0.13684727143600872,0.1045698805825312,-0.11784006601310193,-0.18742463065715614,-0.030149452808859067,-0.06866647242865534,-0.06191529509215434,-0.11869238539672368,0.04255359650709693,-0.042706467954066955,0.15750639278465473,0.03956621707814999,0.0032795870145220173,0.019592265447027746,-0.04424442901960301,0.1132322339169366,-0.024600893509800794,0.010590532039046112,-0.03390583446118463,-0.03674198926610587,-0.20162856647483848,-0.04601281193194893,-0.0834455290463855,-0.026983339456732168,-0.03715026054174546,-0.095675420545076,-0.11597863085172427,0.13218090414894496,-0.17466867343816467,-0.13333532142580312,-0.04116120862103484,0.18253284244978074,0.09515961864292247,0.10233719256384263,0.09052536872242434,-0.04834616631828105,0.16689808811654472,-0.005967520110676898,0.05223541931648024,-0.09169973615695476,0.1194326480926698,-0.079763606700089,-0.06649046934529612,-0.036576369989009344,0.0004181720281338436,-0.05197831859029813,-0.05228219583507813,-0.11639568552640449,-0.04571734665819585,0.17309027034965083,0.05067569581408542,0.047929424595075744,-0.05635723363745205,-0.02998890846347528,0.204441193113683,-0.04090614588705722,-0.03191765309494888,-0.04577458058006268,0.1879970680349332,-0.11581791814631962,-0.015240472242674085,0.09660541658797525,-0.08740290436581437,-0.016009769491991115,-0.10400860644551943,0.2566066261692686,-0.2812664494297276,0.024371271483267905,-0.11951876385118702,-0.1480598676135759,0.03670458005784636,-0.024095741875161357,0.14906030510805013,0.21563040237261172,0.024976229401752256,-0.060020815354263846,-0.06890192074180357,-0.004870204114088321,0.25286800646547364,-0.06937464445335612,0.1610541703996223,0.10910559003682639,-0.32479070132720494,-0.24982424709807405,-0.13955603298867292,0.07765169511706257,-0.08886903186735311,0.14547961292223058,0.16151516621953996,0.03421447429378453,0.24819470865065377,0.1852548240737354,0.12044838240213698,0.050909325779551734,0.16920379477502018,0.18623220918473452,0.004473238640135152,-0.06390638302761896,-0.03119405269394798,0.06549205632454026,0.08360729317865065,0.10724729011751304,0.05382726035759898,-0.09297422424753478,0.07923852035874111,0.2390451439645562,0.027452775500066248,-0.11595302708188263,0.0074599527646259855,0.12026006943584498,-0.2608109725224756,-0.05579987464340886,0.17107721228556033,-0.08503774031530976,-0.1075956436051238,-0.1528424059494556,0.16817251360828867,-0.08010862920320647,-0.1505796035482402,-0.038233851350345065,0.012876061590099342,0.042803414135188636,0.14312817686358878,0.12537564944109053,-0.21376444825569138,-0.11475761169737089,-0.30225766781281743,-0.14104042697843647,0.036505791970038344,0.1547738008001526,-0.21421048425811953,-0.13741361271602714,0.2285902050712027,0.11918362841140656,0.06317343075745327,-0.0668602768439183,0.0658960201552518,-0.10616588061280843,0.2561194166185863,0.017275559487832947,-0.0733979171736106,0.06805798601182375,0.026057364325000585,-0.09138230326987724,0.15605302856300418,0.273144305180313,0.02145673955262086,0.06574492867385949,-0.005113140330248498,0.14072009813643915,-0.0490138228717818,0.029286252870800576,-0.03621166271201972,-0.15194093790691662,-0.02051821340567947,-0.07658785984596232,0.0663620114684899,-0.03493889021819178,-0.17857724755716092,0.02756804270340133,-0.027024148234766284,-0.015976328193289643,0.09355014055123351,-0.09447441736090309,-0.060742389520318636,0.150013017282068,0.07228715567073284,0.15248059907136619,0.04734420255847317,-0.18160384008363326,-0.008441202551430861,0.0945779396269775,0.031600047527851,0.17948475201716196,-0.21490019102895877,0.05146080786713016,-0.09621970879380452,0.022374462925911456,0.014889347943212559,-0.1620809455295072,0.13326252809766448,-0.060693340623722065,-0.007890107703725594,0.0682735294951575,0.07149106894693606,0.006778931648881479,-0.04753001961341255,0.07604636547240141,0.15086283623737498,-0.04112422551512934,-0.0458217001359055,-0.15694797625469448,0.10450012013984317,-0.051216935169574186,0.10240772806020539,0.13013613736923715,-0.1421689853444804,-0.08515709774131756,0.07178733734947486,-0.18932624308535798,-0.0792600386108281,-0.023451174788368126,-0.12434847962034519,-0.2459543535566807,-0.12612864814044722,0.033536233378014084,-0.1261522647590562,-0.005563250703151485,0.013245457785349926,-0.208759715790709,-0.026516368704907454,-0.14487452672085593,0.032051676895425214,-0.22609791935693035,-0.20404013609182714,-0.01728408202738735,0.036345501168658444,0.0384390143858541,0.09672262213675956,0.1183753806610183,-0.0281169895263668,0.27936780401749445,0.14763165802823536,0.09717424462442964,0.07741369175513287,-0.021810413641171908,0.05197860138637988,0.03620688120844247,-0.08082694882280915,-0.09026127151498597,0.11704231722235518,0.1021292131383992,-0.008865500209097418,0.027695178886291926,0.04202449761059373,0.16558923796143876,0.04838538572262096,-0.011038009006364051,-0.19173654916416683,-0.1585148983916816,0.017150499485568075,0.13392119028106025,0.04607454816545434,-0.027588863424401738,-0.07780851678928068,-0.016963173349515772,-0.15729766815474644,0.057009592206785274,0.03708188099710305,0.035885247305368274,0.10999706421070263,-0.060793200012199844,-0.029459570610058036,-0.04328053623487011,-0.07298924620600604,-0.2905893474719091,